// Machine Learning that I never got finished

function anonymous(rawInput,isSampleI,temperature) {
  if (typeof rawInput === 'undefined') rawInput = [];
  if (typeof isSampleI === 'undefined') isSampleI = false;
  if (typeof temperature === 'undefined') temperature = 1;
  var json = {"type":"LSTM","options":{"inputSize":14,"inputRange":14,"hiddenLayers":[20,20],"outputSize":14,"decayRate":0.999,"smoothEps":1e-8,"regc":0.000001,"clipval":5,"maxPredictionLength":100,"dataFormatter":{"values":["11,7,5,5,12,4,8,11,6,10,3,7,11,10,10,10,7,12,5,10,9,4,6","4","7,9,12,10,11,3,12,7,6,8,11,9,5,11,8","3","3,5,3,7,8,9,12","3,9,11,3,8,6,3","2","4,5,6,5,7,3,5,5,11","5,9,3,7,10,11,9,5,12,12,12","5,5,8,10,7,12,8,9,4,4,6","9,5,10,12,4,8,9,11,12,9,3,3,6,5,12,4,5,4,9","6,12,8,5,7,5,7,8,4,4,8,6,12","5,4,4,11,4,5,3,8,3,8,5","7,5,12,10,3,11,9,5,8,7,6,3,3,11,4","12,6,10,5,8,5,10,5,8,6,5,7,4,3,6,6,3,7,4,9,4,7,9,5,8","8,9,9,4,6,9,9,3,3,9,11,9,5,8,12,9,8","9,9,10,12,9,12,5,9,6,3,11,6,6,10,10,12,4,9,3","9,4,8,3,11,12,4,6,6,3,11,3,5,5,3,10,6,5,11","7,10,12,5,4,10,7,8,11,8,9,10,11,4,7","7,9,7,8,7,4,8,4,6,7,4,10,3,4,8","9,4,8,11,6,11,3,4,12,9,12,5,5,10,4,10,7,9,6","10,10,5,6,6,6,3,8,12,7,11,11,3,12,7,12,4,8,7,4,3","6,9,8,11,7,7,10,4,12,3,10,10,4","5,10,3,12,3,3,11,5,12,4,3","10,10,9,12,5,5,10,10,9,4,9,11,11,10,6,5,8,7,11,5,5","4,7,9,6,6,4,5,8,7","3,5,6,5,5,10,11","5,12,8,9,12,3,10,4,10,11,11","4,10,10,10,9,6,10,9,8","4,12,12,6,6,8,5,12,4","9,12,3,10,7,12,12,3,6,10,11,4,10,7,11,12,7,7,3","6,7,6,5,8,9,10,12,12,6,11,8,3","4,4,4,10,11,7,11,3,3","6,4,4,11,6,9,5,9,10,10,3,5,11","6,5,3,8,12,11,12,5,10,12,4,8,5","6,6,7,7,9,7,12,8,8,6,6,9,7","12,7,8,9,10,6,11,9,3,10,10,3,9,3,12,12,4,5,6,6,7,4,7,9,7","10,3,12,10,5,5,7,12,7,5,9,6,7,9,9,8,3,10,12,4,12","8,9,7,12,8,3,8,11,4,8,6,9,12,8,7,3,10","7,5,3,5,3,11,11,10,7,6,12,4,6,3,3","5,12,8,12,8,6,5,12,6,3,11","6,3,4,8,6,4,8,9,11,12,4,3,10","12,8,3,11,4,6,10,3,11,3,9,8,7,11,10,7,11,9,10,3,8,9,5,12,6","11,5,3,10,11,12,6,6,6,6,11,3,7,4,3,12,6,7,6,12,9,3,10","8,11,5,6,5,11,12,3,12,12,10,7,12,7,11,3,10","7,9,11,4,5,11,3,5,11,7,7,4,12,7,11","3,12,10,4,9,10,5","3,12,5,4,9,5,10","1","3,9,5,12,7,12,5","10,3,7,10,3,9,8,10,5,6,3,7,4,11,12,12,9,5,5,3,4","7,7,5,8,3,9,6,9,7,11,12,7,12,5,3","9,8,4,7,3,8,4,8,10,10,3,10,12,7,12,8,11,7,7","12,10,11,3,3,5,12,11,5,7,12,4,3,10,9,4,10,10,7,5,5,4,6,3,4","5"],"indexTable":{"0":8,"1":0,"2":4,"3":9,"4":5,"5":3,"6":7,"7":2,"8":6,"9":10,",":1,"stop-input":11,"start-output":12,"unrecognized":13},"characterTable":{"0":"1","1":",","2":"7","3":"5","4":"2","5":"4","6":"8","7":"6","8":"0","9":"3","10":"9","11":null,"12":null,"13":null},"characters":["1",",","7","5","2","4","8","6","0","3","9","stop-input","start-output","unrecognized"],"specialIndexes":[11,12,13]}},"input":{"rows":15,"columns":14,"weights":{"0":0.9976316690444946,"1":0.03203224390745163,"2":-1.1411367654800415,"3":-1.608276605606079,"4":-0.45580437779426575,"5":1.0876020193099976,"6":-1.3961001634597778,"7":-1.1918234825134277,"8":-1.712529182434082,"9":0.4996735155582428,"10":0.9790977835655212,"11":-1.7303553819656372,"12":-0.5438124537467957,"13":-1.6195734739303589,"14":0.2110101580619812,"15":0.21357357501983643,"16":-0.2029281109571457,"17":0.49303069710731506,"18":-1.2829970121383667,"19":-0.9130491614341736,"20":2.3154006004333496,"21":-1.5024027824401855,"22":-0.8942939639091492,"23":1.6525640487670898,"24":-1.1168932914733887,"25":1.4710302352905273,"26":-0.5521212816238403,"27":-0.08614427596330643,"28":-2.4642581939697266,"29":-0.5638901591300964,"30":0.43922919034957886,"31":-0.28474923968315125,"32":-0.16885092854499817,"33":0.09014958143234253,"34":-1.662514090538025,"35":0.27000847458839417,"36":0.3258538842201233,"37":-2.65462589263916,"38":1.2883843183517456,"39":-0.39969098567962646,"40":2.2023448944091797,"41":-1.0767953395843506,"42":-0.12084982544183731,"43":-1.6481983661651611,"44":-0.45930010080337524,"45":3.7350480556488037,"46":0.17747867107391357,"47":5.49005651473999,"48":-3.500149726867676,"49":1.3177002668380737,"50":1.178476095199585,"51":-0.5139333605766296,"52":0.574669599533081,"53":-0.6761038303375244,"54":0.6613020896911621,"55":-2.7873239517211914,"56":4.151683330535889,"57":-2.860363006591797,"58":-1.1616511344909668,"59":0.1384710818529129,"60":0.6911746859550476,"61":1.8104556798934937,"62":-0.26227617263793945,"63":-0.6330145001411438,"64":-0.8339346051216125,"65":4.19127082824707,"66":0.7304755449295044,"67":-0.11475872248411179,"68":-2.254359245300293,"69":0.5094519257545471,"70":2.431655168533325,"71":-1.0582882165908813,"72":2.358947515487671,"73":1.3581982851028442,"74":1.0196574926376343,"75":0.07038836926221848,"76":0.38529837131500244,"77":-1.3526219129562378,"78":-0.9569772481918335,"79":3.3674213886260986,"80":-1.6795094013214111,"81":-1.420932412147522,"82":0.43551796674728394,"83":2.003251314163208,"84":0.4463250935077667,"85":-1.2684811353683472,"86":1.1138296127319336,"87":2.384702205657959,"88":0.426998496055603,"89":2.0170443058013916,"90":-1.5140382051467896,"91":0.5076267123222351,"92":0.7191450595855713,"93":0.6913896203041077,"94":-0.4681283235549927,"95":-0.6277142763137817,"96":0.3046078085899353,"97":-0.3080175220966339,"98":-1.5102187395095825,"99":-1.5963739156723022,"100":1.5302270650863647,"101":-1.8355374336242676,"102":2.7046456336975098,"103":-2.004859447479248,"104":1.1569188833236694,"105":1.82390296459198,"106":1.7449718713760376,"107":-2.358806610107422,"108":-0.6262539625167847,"109":0.5962933897972107,"110":1.824031114578247,"111":1.7173975706100464,"112":-1.3632898330688477,"113":1.6634011268615723,"114":-0.603701651096344,"115":1.3312124013900757,"116":1.6263542175292969,"117":3.640848398208618,"118":-4.187586307525635,"119":-0.7888649702072144,"120":-1.2200815677642822,"121":-2.3062705993652344,"122":-1.4475183486938477,"123":-3.345756769180298,"124":-1.8089234828948975,"125":-0.8441248536109924,"126":-2.6758604049682617,"127":0.9001510739326477,"128":1.8935257196426392,"129":1.1506679058074951,"130":1.677795648574829,"131":0.5963904857635498,"132":-2.9214117527008057,"133":1.2457197904586792,"134":1.1053142547607422,"135":-3.6221654415130615,"136":-2.323627233505249,"137":-2.4489214420318604,"138":2.4416775703430176,"139":0.7163337469100952,"140":-0.2270396202802658,"141":-0.13475680351257324,"142":0.3586882948875427,"143":0.737876832485199,"144":-0.21124601364135742,"145":-0.028123071417212486,"146":-0.40191370248794556,"147":-0.1662539392709732,"148":-0.1300545036792755,"149":-0.34530186653137207,"150":0.3829982280731201,"151":0.08652345836162567,"152":0.19759318232536316,"153":0.3857109546661377,"154":2.8683271408081055,"155":-0.33113759756088257,"156":0.8012821078300476,"157":-0.1955149620771408,"158":-0.3681681752204895,"159":-0.39802655577659607,"160":-0.4375520944595337,"161":-1.3740944862365723,"162":-0.23225566744804382,"163":3.3983101844787598,"164":1.4863061904907227,"165":-1.0292503833770752,"166":0.5424892902374268,"167":0.9565058946609497,"168":-0.6504459977149963,"169":1.4508777856826782,"170":-1.4994609355926514,"171":-1.3615962266921997,"172":-2.3219010829925537,"173":-2.5820136070251465,"174":0.4445168077945709,"175":1.4910186529159546,"176":0.8069952726364136,"177":-0.5312482714653015,"178":1.0986871719360352,"179":1.4349617958068848,"180":-1.1714552640914917,"181":-0.6996783018112183,"182":-0.10802134871482849,"183":-0.3743981719017029,"184":-0.3291046619415283,"185":-0.46465006470680237,"186":-1.1024094820022583,"187":-0.12463349848985672,"188":0.3139747381210327,"189":0.23429958522319794,"190":0.02142552100121975,"191":0.16226792335510254,"192":-0.025803860276937485,"193":0.5188844799995422,"194":-0.33495625853538513,"195":0.17732767760753632,"196":-0.05346406251192093,"197":-0.016008317470550537,"198":-0.020040957257151604,"199":-0.06110711023211479,"200":0.018377725034952164,"201":-0.003355302382260561,"202":0.011766062118113041,"203":-0.025644918903708458,"204":0.016485409811139107,"205":0.046315815299749374,"206":-0.056231528520584106,"207":0.04383648931980133,"208":0.07153133302927017,"209":-0.05214828625321388}},"hiddenLayers":[{"inputMatrix":{"rows":20,"columns":14,"weights":{"0":0.22862188518047333,"1":-0.4791170656681061,"2":1.3219488859176636,"3":1.855800747871399,"4":-0.7435306906700134,"5":0.009168127551674843,"6":1.1872766017913818,"7":0.10109126567840576,"8":0.4347739815711975,"9":0.8055105805397034,"10":-0.31863200664520264,"11":0.8963181972503662,"12":0.33577901124954224,"13":0.5015802383422852,"14":-0.49492335319519043,"15":1.4086514711380005,"16":-0.48388588428497314,"17":-0.05894021689891815,"18":0.349293053150177,"19":0.7189306616783142,"20":-0.7489485144615173,"21":-0.4720432162284851,"22":-0.5203201174736023,"23":-0.7754853367805481,"24":-0.55914306640625,"25":-0.38668522238731384,"26":-0.14923737943172455,"27":-0.6009805798530579,"28":0.3311068117618561,"29":-0.5555856227874756,"30":1.5241400003433228,"31":2.304027557373047,"32":1.1721447706222534,"33":1.0482616424560547,"34":-1.9579921960830688,"35":0.12098639458417892,"36":0.4394565522670746,"37":0.213050976395607,"38":-0.6502849459648132,"39":-1.0582163333892822,"40":0.6200799942016602,"41":2.7071592807769775,"42":0.8035892844200134,"43":-0.8349694609642029,"44":1.013221263885498,"45":0.5639060139656067,"46":2.8834173679351807,"47":2.052217960357666,"48":0.5125991702079773,"49":0.22241750359535217,"50":0.7386871576309204,"51":0.9172497391700745,"52":-2.1953446865081787,"53":-0.6120983958244324,"54":0.3526281714439392,"55":2.157341718673706,"56":0.0035645796451717615,"57":-1.056477665901184,"58":0.9005060195922852,"59":0.5781627297401428,"60":1.461327075958252,"61":0.3474954664707184,"62":-0.6555950045585632,"63":1.5674540996551514,"64":1.301026463508606,"65":-0.042627252638339996,"66":1.0449209213256836,"67":-0.21912150084972382,"68":0.8076016306877136,"69":0.9227439165115356,"70":1.3096225261688232,"71":-1.4149959087371826,"72":0.7291864156723022,"73":0.6620586514472961,"74":0.3293720483779907,"75":0.5853649377822876,"76":1.1612404584884644,"77":0.3139553964138031,"78":0.16225241124629974,"79":1.6462870836257935,"80":-0.8897659182548523,"81":0.4471578598022461,"82":-0.044218990951776505,"83":0.4051845371723175,"84":-0.44770291447639465,"85":1.2862167358398438,"86":-1.3223505020141602,"87":-1.626807689666748,"88":-0.1229548454284668,"89":-0.8416424989700317,"90":0.8462828993797302,"91":-0.6164659261703491,"92":-0.7338140606880188,"93":-0.4841460585594177,"94":0.24522291123867035,"95":0.5069177150726318,"96":-0.5076121091842651,"97":-2.2633161544799805,"98":-0.03066367469727993,"99":0.09958663582801819,"100":2.7385900020599365,"101":2.2014811038970947,"102":0.770271360874176,"103":0.12879174947738647,"104":-2.049161434173584,"105":0.5845476388931274,"106":1.0875838994979858,"107":-0.17446167767047882,"108":-0.2476533204317093,"109":-1.5860952138900757,"110":1.2051012516021729,"111":2.582271099090576,"112":0.35379305481910706,"113":-0.656125009059906,"114":0.8738834261894226,"115":1.42237389087677,"116":2.818648099899292,"117":1.1779322624206543,"118":-0.9399566054344177,"119":0.4041878283023834,"120":0.6604092717170715,"121":0.0926840677857399,"122":-0.7216903567314148,"123":-0.819758951663971,"124":0.520812451839447,"125":1.5967440605163574,"126":0.5008501410484314,"127":1.5028711557388306,"128":-0.5998905301094055,"129":-0.5543348789215088,"130":-1.3800872564315796,"131":-1.0818164348602295,"132":0.05263536050915718,"133":0.7072712182998657,"134":0.29763591289520264,"135":0.06249995157122612,"136":0.4012119472026825,"137":0.3246850073337555,"138":-1.0781655311584473,"139":-0.1805752068758011,"140":1.1922969818115234,"141":0.0915902778506279,"142":-1.0171023607254028,"143":-0.5566806793212891,"144":-1.1986132860183716,"145":0.050352662801742554,"146":0.8274933695793152,"147":-1.1273385286331177,"148":-1.107875108718872,"149":1.2352898120880127,"150":-0.13120169937610626,"151":0.025412240996956825,"152":-1.152863621711731,"153":-0.22422927618026733,"154":-0.8088021874427795,"155":-2.2528767585754395,"156":0.33735960721969604,"157":0.8860394954681396,"158":1.3574090003967285,"159":1.3486684560775757,"160":0.7980930805206299,"161":-0.9128865599632263,"162":-0.46129170060157776,"163":-0.5254513621330261,"164":-0.8067311644554138,"165":0.38619813323020935,"166":0.6543793678283691,"167":0.46290111541748047,"168":0.0821659117937088,"169":0.1362934112548828,"170":1.2009611129760742,"171":1.4396474361419678,"172":0.26239946484565735,"173":0.06227319687604904,"174":-0.769542932510376,"175":0.22961363196372986,"176":0.5372965335845947,"177":0.06006244197487831,"178":-0.1828039437532425,"179":-0.29304254055023193,"180":0.6890738606452942,"181":1.3560190200805664,"182":-0.29341432452201843,"183":-0.6924451589584351,"184":0.6008099913597107,"185":-0.07340747117996216,"186":0.14967483282089233,"187":-0.02611546963453293,"188":-0.009665540419518948,"189":0.4433278441429138,"190":0.391873836517334,"191":-0.6709988117218018,"192":0.7123875021934509,"193":-0.07069916278123856,"194":0.8797365427017212,"195":0.2503916323184967,"196":-0.1849314272403717,"197":-2.4115495681762695,"198":1.7262721061706543,"199":1.2542140483856201,"200":-0.1155163124203682,"201":0.09657991677522659,"202":0.6437362432479858,"203":0.5989250540733337,"204":0.7782350182533264,"205":0.0923810601234436,"206":0.2712034285068512,"207":0.6728458404541016,"208":1.471684217453003,"209":1.071746587753296,"210":0.3316566050052643,"211":1.1693921089172363,"212":-0.27192309498786926,"213":-0.23215778172016144,"214":-0.12988486886024475,"215":0.020159250125288963,"216":0.06927340477705002,"217":-0.31460967659950256,"218":-0.4145543873310089,"219":0.27911177277565,"220":0.43555116653442383,"221":-0.1543302983045578,"222":-0.6493176221847534,"223":0.03788113221526146,"224":-1.9836111068725586,"225":-0.033580679446458817,"226":1.3253833055496216,"227":-0.025671470910310745,"228":-0.41458332538604736,"229":-1.7149461507797241,"230":0.7655569911003113,"231":1.4124271869659424,"232":0.8974538445472717,"233":-2.9898459911346436,"234":0.5614190101623535,"235":0.5294156074523926,"236":1.4040260314941406,"237":1.514940857887268,"238":-0.05426924303174019,"239":1.325162410736084,"240":-0.6044597625732422,"241":1.3427492380142212,"242":-0.8240861296653748,"243":0.47616755962371826,"244":0.4875384271144867,"245":0.07273753732442856,"246":0.006057325284928083,"247":0.301842600107193,"248":-1.2456649541854858,"249":0.7256719470024109,"250":-0.637775182723999,"251":-0.35830432176589966,"252":-0.03024563193321228,"253":0.135464146733284,"254":1.2024768590927124,"255":1.3521240949630737,"256":-0.6145411133766174,"257":-0.07305573672056198,"258":-0.14659982919692993,"259":-0.1426525115966797,"260":0.22074128687381744,"261":-0.009130017831921577,"262":-0.4323884844779968,"263":-1.2768757343292236,"264":0.8187075257301331,"265":0.926433801651001,"266":-0.6600443124771118,"267":0.30394601821899414,"268":-0.8174026012420654,"269":-1.206167221069336,"270":-2.188347578048706,"271":-1.6091033220291138,"272":0.4568819999694824,"273":0.31968924403190613,"274":0.31428539752960205,"275":-0.35271742939949036,"276":0.4566117227077484,"277":1.0479780435562134,"278":-0.84531569480896,"279":0.2287469059228897}},"inputHidden":{"rows":20,"columns":20,"weights":{"0":-0.5827160477638245,"1":-1.7079565525054932,"2":-0.046715147793293,"3":-1.3402224779129028,"4":1.3090343475341797,"5":1.1261227130889893,"6":-1.8943110704421997,"7":-0.392192006111145,"8":-0.8232657313346863,"9":1.7942174673080444,"10":-0.7087203860282898,"11":-0.037152327597141266,"12":0.27585074305534363,"13":-1.3805266618728638,"14":-1.510680079460144,"15":2.162400007247925,"16":0.8629162311553955,"17":-1.2320432662963867,"18":0.29379406571388245,"19":-1.8141908645629883,"20":0.48233604431152344,"21":-0.3176707327365875,"22":0.43141254782676697,"23":-0.08831706643104553,"24":-4.848285675048828,"25":0.7485338449478149,"26":2.5552563667297363,"27":0.009869532659649849,"28":2.6461236476898193,"29":-1.4315382242202759,"30":1.4793769121170044,"31":-1.279052972793579,"32":-0.34329408407211304,"33":-1.714019775390625,"34":0.04949456825852394,"35":0.29329144954681396,"36":-0.6891822814941406,"37":1.6733790636062622,"38":-1.236242651939392,"39":-0.6744049787521362,"40":-0.10152032971382141,"41":-0.9138109087944031,"42":0.10458193719387054,"43":0.4218929708003998,"44":0.65108722448349,"45":0.013269559480249882,"46":-0.3928946256637573,"47":0.020422684028744698,"48":-0.8588283061981201,"49":-0.3257967531681061,"50":0.3390609622001648,"51":0.8685199618339539,"52":-0.17889271676540375,"53":0.8057401180267334,"54":-1.0355944633483887,"55":0.13277719914913177,"56":0.1926082968711853,"57":-0.005432883743196726,"58":-0.4589691460132599,"59":0.12346573173999786,"60":0.34131160378456116,"61":-0.6848862767219543,"62":0.1617475003004074,"63":-0.6572415232658386,"64":-0.5665650367736816,"65":1.341590166091919,"66":0.31741276383399963,"67":0.019416533410549164,"68":-0.25814512372016907,"69":-0.21472704410552979,"70":0.3754250705242157,"71":0.0693475678563118,"72":0.1685936599969864,"73":-4.340861797332764,"74":0.8765309453010559,"75":0.4674115777015686,"76":1.3942735195159912,"77":1.289142370223999,"78":-0.2473415583372116,"79":0.49840131402015686,"80":-2.009812593460083,"81":-3.24456524848938,"82":-1.728615403175354,"83":-2.2241153717041016,"84":-0.7682536840438843,"85":-0.4589748978614807,"86":-0.9126030206680298,"87":1.7792127132415771,"88":0.08936936408281326,"89":1.2626011371612549,"90":-1.3647280931472778,"91":0.09502425044775009,"92":-1.264833688735962,"93":-1.3453142642974854,"94":-0.23765692114830017,"95":3.4399328231811523,"96":0.43328922986984253,"97":-1.323857307434082,"98":1.6748836040496826,"99":-2.3927252292633057,"100":0.29553401470184326,"101":-2.657804250717163,"102":0.9301840662956238,"103":1.433089256286621,"104":-1.4901279211044312,"105":-1.0942679643630981,"106":0.8790006637573242,"107":-0.8279563188552856,"108":-1.2445306777954102,"109":-0.5344395041465759,"110":1.466654896736145,"111":0.13578090071678162,"112":1.0507335662841797,"113":2.1133158206939697,"114":-0.520610511302948,"115":6.220705509185791,"116":1.7352190017700195,"117":0.8314136266708374,"118":-0.5668089389801025,"119":-1.3647174835205078,"120":-2.093292236328125,"121":0.42919328808784485,"122":-1.5549044609069824,"123":0.06707059592008591,"124":-0.04321201890707016,"125":0.17773228883743286,"126":-0.12689214944839478,"127":0.9841986894607544,"128":1.1391584873199463,"129":0.3934163451194763,"130":-0.06096233054995537,"131":-2.203979730606079,"132":-1.5165201425552368,"133":-1.6067453622817993,"134":0.7896749973297119,"135":-0.6183785796165466,"136":-0.1867849975824356,"137":-1.4659010171890259,"138":1.2443666458129883,"139":-1.2898746728897095,"140":0.09467847645282745,"141":-1.4584492444992065,"142":-0.2182903289794922,"143":1.3921626806259155,"144":0.5040448904037476,"145":2.3463754653930664,"146":-0.7539283037185669,"147":0.25338783860206604,"148":-0.6439104676246643,"149":-0.06255187094211578,"150":0.7598063349723816,"151":0.49072059988975525,"152":0.18108268082141876,"153":-0.8440991640090942,"154":-5.830716133117676,"155":3.3474624156951904,"156":2.5792999267578125,"157":-0.08619671314954758,"158":-0.2780129313468933,"159":-0.3568004071712494,"160":0.2812369167804718,"161":-2.0773136615753174,"162":-2.784412384033203,"163":0.9990593791007996,"164":0.8192150592803955,"165":-1.1446692943572998,"166":-0.9497033357620239,"167":2.4938414096832275,"168":-0.29239919781684875,"169":0.9634560346603394,"170":-0.24494467675685883,"171":1.2566157579421997,"172":-2.661512851715088,"173":-1.0598050355911255,"174":1.9397844076156616,"175":2.610780715942383,"176":-1.5663654804229736,"177":-1.3207528591156006,"178":-0.25600340962409973,"179":0.4665139317512512,"180":-0.12296616286039352,"181":0.8071513175964355,"182":0.9071353673934937,"183":1.246794581413269,"184":-0.6691315770149231,"185":0.22613456845283508,"186":1.976841926574707,"187":-0.11429619044065475,"188":0.07457873970270157,"189":-1.1747676134109497,"190":0.0630282536149025,"191":-0.210044726729393,"192":0.5648258924484253,"193":1.1655489206314087,"194":-0.10517474263906479,"195":-2.2405076026916504,"196":0.8545090556144714,"197":1.569292664527893,"198":0.10018591582775116,"199":1.210363745689392,"200":-1.3333451747894287,"201":-0.0683230459690094,"202":-0.40480920672416687,"203":-1.0527045726776123,"204":0.6778963804244995,"205":1.0630022287368774,"206":-0.7628569006919861,"207":-0.22988785803318024,"208":0.06950026005506516,"209":0.14937111735343933,"210":-1.5663131475448608,"211":-0.31780773401260376,"212":-0.4577663242816925,"213":-2.321491003036499,"214":-0.5967808961868286,"215":0.44283607602119446,"216":0.7298926115036011,"217":-0.08133138716220856,"218":1.4448091983795166,"219":-1.0937957763671875,"220":-0.23184815049171448,"221":-2.598620891571045,"222":-1.6308060884475708,"223":-0.5745906233787537,"224":0.8872788548469543,"225":0.7483900785446167,"226":-2.078017473220825,"227":0.6954603791236877,"228":-1.2329515218734741,"229":0.6763405203819275,"230":-0.6019555330276489,"231":0.17355073988437653,"232":-1.4711819887161255,"233":-1.4202063083648682,"234":0.15857121348381042,"235":4.574618339538574,"236":-0.4212312698364258,"237":-1.8640121221542358,"238":0.15271930396556854,"239":-0.09280139952898026,"240":-0.458739697933197,"241":-2.3360595703125,"242":-0.7388415336608887,"243":-0.020053016021847725,"244":1.569153070449829,"245":1.0337693691253662,"246":-2.060779333114624,"247":-0.0011094699148088694,"248":-1.3597403764724731,"249":0.4202023446559906,"250":-1.444825530052185,"251":0.7666943669319153,"252":-0.03241008147597313,"253":1.1698358058929443,"254":-2.7336504459381104,"255":1.6463184356689453,"256":1.5378402471542358,"257":-0.8160541653633118,"258":0.8691205382347107,"259":-0.2955649793148041,"260":2.1274101734161377,"261":4.224015235900879,"262":0.5458786487579346,"263":2.6487314701080322,"264":-1.4148222208023071,"265":1.9092931747436523,"266":1.9375853538513184,"267":-0.06069020554423332,"268":1.158783197402954,"269":-0.9129606485366821,"270":1.120529294013977,"271":-0.7721683979034424,"272":0.16146895289421082,"273":-0.03545860946178436,"274":-0.09916049242019653,"275":-0.18127480149269104,"276":-0.6309525370597839,"277":2.4098236560821533,"278":-0.2702220678329468,"279":1.7591052055358887,"280":-0.5035994648933411,"281":-1.2391791343688965,"282":0.008484846912324429,"283":-0.834442675113678,"284":0.5524039268493652,"285":0.49339717626571655,"286":-0.9563709497451782,"287":0.12199053913354874,"288":-1.4671480655670166,"289":0.005697874817997217,"290":-2.065290689468384,"291":-0.41631364822387695,"292":0.26197534799575806,"293":0.1037023663520813,"294":-1.9766405820846558,"295":3.9466238021850586,"296":0.6986029148101807,"297":-0.5435306429862976,"298":0.6204407215118408,"299":0.6277997493743896,"300":1.5849254131317139,"301":0.9682954549789429,"302":3.150329351425171,"303":4.7481889724731445,"304":-3.7890942096710205,"305":1.5889631509780884,"306":2.8222672939300537,"307":-1.9639567136764526,"308":1.360611915588379,"309":-0.5146395564079285,"310":2.2764084339141846,"311":-1.2694478034973145,"312":2.188617706298828,"313":0.10900839418172836,"314":-1.383617639541626,"315":4.130747318267822,"316":3.9247119426727295,"317":5.160984992980957,"318":-1.6035739183425903,"319":-0.4173164367675781,"320":0.3057883679866791,"321":0.18732769787311554,"322":0.6675465106964111,"323":1.3848545551300049,"324":0.87587970495224,"325":-0.4230325222015381,"326":-0.615620493888855,"327":-0.3537806272506714,"328":-1.0547986030578613,"329":0.3631818890571594,"330":-0.2660078704357147,"331":0.8257689476013184,"332":0.9263733625411987,"333":4.773501873016357,"334":0.881077229976654,"335":-3.0547358989715576,"336":-1.6807868480682373,"337":-0.474437415599823,"338":-1.0681852102279663,"339":-1.810204267501831,"340":-1.3120994567871094,"341":-1.4621909856796265,"342":-0.4698353111743927,"343":-1.9530631303787231,"344":1.577531337738037,"345":1.3986300230026245,"346":-1.0530524253845215,"347":-0.2378399819135666,"348":-1.2775191068649292,"349":0.7832438349723816,"350":0.8227030038833618,"351":0.6747424602508545,"352":-0.3334006667137146,"353":-1.3271201848983765,"354":-0.8723731637001038,"355":-0.7910686135292053,"356":0.7844715118408203,"357":-1.7724264860153198,"358":2.3836450576782227,"359":-0.07757360488176346,"360":-0.6391772031784058,"361":-1.7995134592056274,"362":-0.5911741256713867,"363":-1.982888102531433,"364":1.7605856657028198,"365":1.300167202949524,"366":-2.080603837966919,"367":0.3072296679019928,"368":-2.0798134803771973,"369":0.29073891043663025,"370":-1.3317817449569702,"371":1.4107173681259155,"372":-0.17300988733768463,"373":0.13084881007671356,"374":-0.8109471797943115,"375":2.569847583770752,"376":0.370537668466568,"377":-1.7921932935714722,"378":0.6405888795852661,"379":-1.3307842016220093,"380":1.5989547967910767,"381":-1.1905001401901245,"382":0.04968087747693062,"383":5.2774739265441895,"384":-1.189728856086731,"385":-2.16544246673584,"386":0.365828275680542,"387":0.34779614210128784,"388":0.6128418445587158,"389":1.3130476474761963,"390":0.27916890382766724,"391":-0.0654790848493576,"392":0.10446768254041672,"393":1.3368312120437622,"394":0.32893142104148865,"395":1.6735429763793945,"396":-0.8301945924758911,"397":1.7857298851013184,"398":-2.503268003463745,"399":-0.5516753196716309}},"inputBias":{"rows":20,"columns":1,"weights":{"0":-1.363078236579895,"1":1.8035666942596436,"2":-0.37338176369667053,"3":-1.3490861654281616,"4":-1.1679397821426392,"5":-1.2671338319778442,"6":0.6147879958152771,"7":-0.8872212767601013,"8":-1.5297765731811523,"9":-0.8197338581085205,"10":0.44396746158599854,"11":-1.1415718793869019,"12":-0.9336695671081543,"13":0.10922596603631973,"14":-0.7805051207542419,"15":2.853346109390259,"16":-0.36831873655319214,"17":-1.006004810333252,"18":-0.901948094367981,"19":-2.1255388259887695}},"forgetMatrix":{"rows":20,"columns":14,"weights":{"0":0.39957916736602783,"1":0.6606095433235168,"2":1.0259605646133423,"3":2.24219012260437,"4":-1.0172775983810425,"5":1.5843298435211182,"6":0.5562698841094971,"7":-0.4168633818626404,"8":-0.5169255137443542,"9":0.7309328317642212,"10":-2.713731288909912,"11":-0.7667689919471741,"12":-0.25803014636039734,"13":0.9856656193733215,"14":-0.1729603409767151,"15":-1.4112465381622314,"16":1.0976169109344482,"17":1.7894092798233032,"18":0.8083054423332214,"19":1.3538671731948853,"20":-3.4146361351013184,"21":-0.169315367937088,"22":0.20563603937625885,"23":-0.13246819376945496,"24":0.9513586163520813,"25":-2.0312395095825195,"26":0.44151994585990906,"27":0.7241185307502747,"28":0.590203583240509,"29":-0.2708030641078949,"30":-0.3766354024410248,"31":-0.30735892057418823,"32":-0.16425246000289917,"33":0.2631883919239044,"34":0.1276593804359436,"35":-0.37563973665237427,"36":-0.3544810116291046,"37":0.5453287363052368,"38":-0.19090397655963898,"39":0.0008117894176393747,"40":-0.4616592228412628,"41":0.42990267276763916,"42":-0.8794035911560059,"43":1.1646780967712402,"44":0.6821708679199219,"45":-0.8167141675949097,"46":-0.49379581212997437,"47":-1.290280818939209,"48":-0.7346073389053345,"49":-0.6579735279083252,"50":-0.6851640343666077,"51":-0.5544916987419128,"52":-0.8331757187843323,"53":-1.3836829662322998,"54":-0.2901446223258972,"55":2.031857967376709,"56":-0.8820472359657288,"57":-1.4861781597137451,"58":0.6573143601417542,"59":-0.16834579408168793,"60":-0.0446767695248127,"61":0.627959132194519,"62":-0.00029850067221559584,"63":-0.37766727805137634,"64":-0.18323886394500732,"65":-0.5003373622894287,"66":-0.2775118947029114,"67":-0.213677316904068,"68":0.543553352355957,"69":0.5618811249732971,"70":-0.6351609230041504,"71":1.4766498804092407,"72":-0.16882507503032684,"73":0.7403386831283569,"74":0.2470681369304657,"75":0.3652392625808716,"76":-0.2628374993801117,"77":-0.9824262857437134,"78":-0.7866674661636353,"79":-0.610298752784729,"80":-0.6591708660125732,"81":-0.3139180839061737,"82":-0.6203681826591492,"83":-0.6059316396713257,"84":1.4837932586669922,"85":-1.3789474964141846,"86":-1.3618130683898926,"87":-1.9025013446807861,"88":-0.5395079851150513,"89":1.1644319295883179,"90":-0.011360052041709423,"91":-1.0501558780670166,"92":-1.4390525817871094,"93":1.2559571266174316,"94":1.7442611455917358,"95":0.6567823886871338,"96":-0.13585391640663147,"97":-1.1870924234390259,"98":0.6660885214805603,"99":-0.1805395483970642,"100":0.9980171918869019,"101":1.1361790895462036,"102":-0.22704529762268066,"103":0.8937941789627075,"104":-0.621383786201477,"105":-0.182639479637146,"106":-0.32681864500045776,"107":0.7220837473869324,"108":-1.1144983768463135,"109":-0.9139499068260193,"110":0.1693074107170105,"111":0.7488992214202881,"112":-0.472372442483902,"113":1.664728045463562,"114":-1.192591667175293,"115":-0.41267260909080505,"116":-1.9499226808547974,"117":-0.984168291091919,"118":0.5865066051483154,"119":0.1607825756072998,"120":-0.12348144501447678,"121":0.064348503947258,"122":0.4201626479625702,"123":0.9086641669273376,"124":-0.49217405915260315,"125":-0.9252727627754211,"126":-0.20331628620624542,"127":0.43716883659362793,"128":0.8712069392204285,"129":0.6467460989952087,"130":0.6545045375823975,"131":-0.014540952630341053,"132":0.030571384355425835,"133":0.20523923635482788,"134":0.45771467685699463,"135":-0.535136878490448,"136":-0.16581843793392181,"137":0.15478436648845673,"138":0.7536708116531372,"139":-0.33359360694885254,"140":0.1819581687450409,"141":-0.08890741318464279,"142":-0.07591958343982697,"143":-0.40353113412857056,"144":-0.98325514793396,"145":-0.021663105115294456,"146":-0.013558833859860897,"147":0.4244557321071625,"148":0.13624690473079681,"149":0.4949212670326233,"150":-0.12499842792749405,"151":0.11378511041402817,"152":-0.4018808901309967,"153":0.18649916350841522,"154":0.3866924047470093,"155":1.5239371061325073,"156":-0.707905650138855,"157":-0.7017762660980225,"158":-1.6149013042449951,"159":-0.3528499901294708,"160":-0.21516844630241394,"161":0.8654025197029114,"162":0.37541666626930237,"163":0.18540924787521362,"164":0.7798404097557068,"165":-0.15301670134067535,"166":-0.7926598191261292,"167":-0.5713461637496948,"168":0.07899321615695953,"169":-0.552375078201294,"170":1.0652331113815308,"171":0.9743217825889587,"172":-0.34443384408950806,"173":1.2114572525024414,"174":-0.029990695416927338,"175":0.27243173122406006,"176":0.15614159405231476,"177":0.22139739990234375,"178":-1.661176323890686,"179":-1.0323708057403564,"180":0.15023905038833618,"181":1.582960605621338,"182":0.08846403658390045,"183":1.0730763673782349,"184":-0.11784279346466064,"185":0.21584239602088928,"186":-0.18029552698135376,"187":-0.08191082626581192,"188":0.021683406084775925,"189":0.10265310853719711,"190":0.14906388521194458,"191":0.1756066381931305,"192":-0.7017685174942017,"193":0.6648842096328735,"194":0.2923169732093811,"195":-0.2621963918209076,"196":0.004288565367460251,"197":0.21842597424983978,"198":0.7267785668373108,"199":2.2326488494873047,"200":-1.7648510932922363,"201":0.2746589183807373,"202":-1.164586067199707,"203":-0.6719104647636414,"204":-0.03999943286180496,"205":0.37875255942344666,"206":1.6444950103759766,"207":0.6161450743675232,"208":0.5260720252990723,"209":-0.6762664914131165,"210":-0.45506584644317627,"211":-0.5264672636985779,"212":0.24048684537410736,"213":0.9533412456512451,"214":0.291932076215744,"215":0.4090343415737152,"216":0.045776788145303726,"217":0.2917475402355194,"218":0.0009877183474600315,"219":-0.5012587308883667,"220":-0.7336713075637817,"221":0.4410873055458069,"222":-0.22695359587669373,"223":0.0071762860752642155,"224":-0.14734934270381927,"225":-1.1003577709197998,"226":1.764089822769165,"227":0.4171070456504822,"228":1.0711064338684082,"229":0.1283254474401474,"230":-0.4260835349559784,"231":0.2599111497402191,"232":0.3594726324081421,"233":-0.09097420424222946,"234":0.6609526872634888,"235":-0.17928284406661987,"236":0.7856178283691406,"237":0.9445087909698486,"238":-0.13117404282093048,"239":-0.8032026290893555,"240":-0.032566629350185394,"241":-0.43903490900993347,"242":-0.29134637117385864,"243":0.03394029662013054,"244":-0.00009701878298074007,"245":0.2531049847602844,"246":-0.006023647729307413,"247":-0.18632261455059052,"248":0.09260452538728714,"249":-0.20088313519954681,"250":-0.28074660897254944,"251":0.22161464393138885,"252":0.018072031438350677,"253":-0.5905503034591675,"254":0.5568345785140991,"255":0.6328426599502563,"256":-0.1899113953113556,"257":0.4638124406337738,"258":-0.6130639910697937,"259":-0.12930123507976532,"260":-0.27510544657707214,"261":0.1539798378944397,"262":-0.8110330104827881,"263":-0.4166406989097595,"264":-0.3188527822494507,"265":0.3040465712547302,"266":0.6531313061714172,"267":-0.7493156790733337,"268":0.2617543637752533,"269":-0.5033900737762451,"270":0.1829688400030136,"271":0.9905751347541809,"272":-0.5953826904296875,"273":0.33474382758140564,"274":0.03802120313048363,"275":0.2315698117017746,"276":0.48931512236595154,"277":-0.18906424939632416,"278":0.18618617951869965,"279":0.3643944263458252}},"forgetHidden":{"rows":20,"columns":20,"weights":{"0":0.21495682001113892,"1":0.5717540383338928,"2":-0.2500106692314148,"3":-0.09309286624193192,"4":0.24467092752456665,"5":-0.12519267201423645,"6":-0.21950270235538483,"7":-0.10702529549598694,"8":-0.2778114676475525,"9":-0.5344105362892151,"10":-0.17787180840969086,"11":-0.0508393794298172,"12":0.1455318033695221,"13":-0.0949842780828476,"14":-0.0717020332813263,"15":0.0933753177523613,"16":0.4251578450202942,"17":-0.09851159155368805,"18":0.2227431833744049,"19":-0.1472931057214737,"20":1.454138159751892,"21":-0.9047630429267883,"22":0.4977749288082123,"23":1.5907522439956665,"24":-1.5817621946334839,"25":1.882444977760315,"26":-0.0808919295668602,"27":-2.3992793560028076,"28":1.385454535484314,"29":0.5439493656158447,"30":-1.8614939451217651,"31":-0.8425923585891724,"32":-0.033038221299648285,"33":-2.098968029022217,"34":0.8736431002616882,"35":2.303772449493408,"36":-0.922560453414917,"37":1.171600103378296,"38":-1.2898553609848022,"39":0.43374598026275635,"40":-0.20945990085601807,"41":-0.31132984161376953,"42":-0.7078167200088501,"43":-0.43543192744255066,"44":0.5986910462379456,"45":0.3152824342250824,"46":-0.520610511302948,"47":0.5802449584007263,"48":-0.5560933947563171,"49":0.19574405252933502,"50":-0.4928492605686188,"51":0.14507101476192474,"52":-0.5631393194198608,"53":-0.11796446889638901,"54":-0.19611629843711853,"55":-0.13368473947048187,"56":0.24736419320106506,"57":-0.4764324426651001,"58":0.42097875475883484,"59":-0.22937244176864624,"60":-3.126495122909546,"61":-0.14760969579219818,"62":-1.1206532716751099,"63":-3.2800204753875732,"64":3.0235776901245117,"65":-0.8769934773445129,"66":-2.0691139698028564,"67":1.0120940208435059,"68":-0.3323298990726471,"69":1.216055154800415,"70":-4.09755277633667,"71":-0.7287941575050354,"72":-0.5046737790107727,"73":-2.8284318447113037,"74":0.3905682861804962,"75":-0.06547606736421585,"76":0.7110052108764648,"77":-2.8343966007232666,"78":-0.1205347403883934,"79":-2.472454309463501,"80":-1.4602046012878418,"81":-0.9450663328170776,"82":-1.1074053049087524,"83":-1.9718127250671387,"84":2.2462732791900635,"85":-2.190953493118286,"86":-2.6774778366088867,"87":0.8405471444129944,"88":-0.8539906144142151,"89":0.9764693379402161,"90":-1.8623428344726562,"91":0.9305077195167542,"92":-0.8226760029792786,"93":0.5197216868400574,"94":0.6556971073150635,"95":-0.25087058544158936,"96":0.16441509127616882,"97":-2.453709363937378,"98":1.7052756547927856,"99":-0.26533517241477966,"100":1.1455416679382324,"101":-0.3769455850124359,"102":1.266793131828308,"103":0.21287570893764496,"104":-0.13735030591487885,"105":0.9965835809707642,"106":0.6303073167800903,"107":-0.83758944272995,"108":-1.0949817895889282,"109":0.07995607703924179,"110":1.1778342723846436,"111":1.3216516971588135,"112":0.9535207748413086,"113":-0.0437026210129261,"114":-1.3217970132827759,"115":-1.1223949193954468,"116":-0.1026727557182312,"117":0.7187080979347229,"118":-1.0216801166534424,"119":-0.12006038427352905,"120":-3.904995918273926,"121":3.612661838531494,"122":-1.4196847677230835,"123":-1.1495314836502075,"124":1.5977959632873535,"125":-2.1729586124420166,"126":-1.074567437171936,"127":1.7761871814727783,"128":0.271758109331131,"129":0.23290453851222992,"130":-2.7258970737457275,"131":-1.1059752702713013,"132":-0.2621404528617859,"133":-1.6854878664016724,"134":0.36380115151405334,"135":0.6754574179649353,"136":1.4097795486450195,"137":-0.6039674878120422,"138":4.360295295715332,"139":-2.374875068664551,"140":0.18012668192386627,"141":0.46758440136909485,"142":-0.13746245205402374,"143":0.29630589485168457,"144":0.19710054993629456,"145":0.09253165870904922,"146":-0.02797887660562992,"147":-0.05531870201230049,"148":-1.114932894706726,"149":0.16042636334896088,"150":-0.08987846970558167,"151":0.5624135136604309,"152":0.004638389218598604,"153":-0.29537564516067505,"154":-0.15754719078540802,"155":0.06798997521400452,"156":0.18452712893486023,"157":0.05752403289079666,"158":0.19951584935188293,"159":-0.4843060076236725,"160":2.188253879547119,"161":-1.4580543041229248,"162":0.7191111445426941,"163":0.8935793042182922,"164":-0.0846727192401886,"165":-0.27396783232688904,"166":0.2645176649093628,"167":-0.96066814661026,"168":0.457661896944046,"169":1.2961760759353638,"170":1.078445315361023,"171":1.9389411211013794,"172":0.9436578154563904,"173":-1.2582813501358032,"174":-1.3236212730407715,"175":-5.900472640991211,"176":1.6963971853256226,"177":0.4474073052406311,"178":-1.319921612739563,"179":-1.2188918590545654,"180":0.4738716185092926,"181":-0.021747732535004616,"182":0.43844419717788696,"183":1.4868651628494263,"184":-0.48207390308380127,"185":0.317271888256073,"186":0.5039805769920349,"187":-0.36469921469688416,"188":-0.7929454445838928,"189":-0.35224682092666626,"190":-0.14929550886154175,"191":0.9064497947692871,"192":0.32535433769226074,"193":-0.13976062834262848,"194":-0.43256646394729614,"195":0.8620938062667847,"196":0.1294722557067871,"197":0.6077147722244263,"198":-0.3273041248321533,"199":0.43479275703430176,"200":-1.1685011386871338,"201":-0.3537396788597107,"202":-0.6477212905883789,"203":-1.828696608543396,"204":2.5088443756103516,"205":-0.7826676368713379,"206":-1.8609167337417603,"207":0.3877001106739044,"208":-0.7247735857963562,"209":1.365747094154358,"210":-1.8195003271102905,"211":0.23755663633346558,"212":0.04769038408994675,"213":-0.8359556198120117,"214":0.1375020444393158,"215":1.4390394687652588,"216":0.16811460256576538,"217":-1.9121230840682983,"218":1.6305787563323975,"219":-1.6438963413238525,"220":0.022793887183070183,"221":1.874961495399475,"222":0.9761431217193604,"223":2.448451042175293,"224":-0.9592491388320923,"225":-1.4163397550582886,"226":0.8903601765632629,"227":-0.7797613739967346,"228":1.4495807886123657,"229":-0.026781544089317322,"230":1.725112795829773,"231":-1.3786247968673706,"232":1.1881579160690308,"233":-0.5898265242576599,"234":-0.8803042769432068,"235":0.4417223334312439,"236":1.7034941911697388,"237":1.7186124324798584,"238":-0.557357132434845,"239":-0.7152318954467773,"240":0.5054479837417603,"241":0.3784693479537964,"242":0.0317472480237484,"243":0.23051334917545319,"244":0.12907640635967255,"245":0.20987871289253235,"246":0.009413526393473148,"247":-0.13333377242088318,"248":-1.2796767950057983,"249":0.2504766881465912,"250":0.03116566315293312,"251":1.2724857330322266,"252":0.22772487998008728,"253":-0.22698837518692017,"254":0.04784318432211876,"255":-0.004073580261319876,"256":-0.11186566203832626,"257":0.08442939072847366,"258":-0.22041919827461243,"259":-0.32378101348876953,"260":0.4974074959754944,"261":1.2341383695602417,"262":0.8346471786499023,"263":2.102351427078247,"264":-2.704812526702881,"265":-0.7699348330497742,"266":0.7707444429397583,"267":-0.6904175281524658,"268":-0.31759145855903625,"269":0.4434850215911865,"270":1.4187779426574707,"271":0.02717953361570835,"272":0.47228896617889404,"273":-0.41965600848197937,"274":-0.544957160949707,"275":1.6159213781356812,"276":1.0121902227401733,"277":2.627897262573242,"278":2.1611366271972656,"279":-0.5372864603996277,"280":-1.6847530603408813,"281":0.04045732319355011,"282":-0.41407009959220886,"283":0.14970113337039948,"284":1.124006748199463,"285":1.157971978187561,"286":-1.3027992248535156,"287":0.543310821056366,"288":-0.6648320555686951,"289":0.7436855435371399,"290":-1.440596580505371,"291":0.7530561685562134,"292":-0.28396859765052795,"293":1.5001773834228516,"294":-1.8688567876815796,"295":1.5965700149536133,"296":-1.0805785655975342,"297":-1.2108813524246216,"298":0.8728456497192383,"299":-0.9606462717056274,"300":-0.7902337908744812,"301":-0.5474482774734497,"302":-0.5421341061592102,"303":-1.2924808263778687,"304":2.228236436843872,"305":-0.24362172186374664,"306":-2.340419054031372,"307":-0.13334380090236664,"308":-0.31987717747688293,"309":1.0141756534576416,"310":-3.671945095062256,"311":0.08565536886453629,"312":-2.6158876419067383,"313":2.621037244796753,"314":2.9413671493530273,"315":4.7512288093566895,"316":0.8639727830886841,"317":-2.095149517059326,"318":1.4967823028564453,"319":-2.4891879558563232,"320":-0.5784395933151245,"321":-3.7561159133911133,"322":-1.1936578750610352,"323":-1.7105810642242432,"324":-0.9104276895523071,"325":0.42893290519714355,"326":-0.8210419416427612,"327":0.5876636505126953,"328":-0.7242559790611267,"329":0.030046941712498665,"330":0.5236617922782898,"331":0.8213784098625183,"332":-1.111151933670044,"333":-2.2424418926239014,"334":0.5263904333114624,"335":3.1865415573120117,"336":-0.5427446961402893,"337":-0.7737351655960083,"338":0.07119100540876389,"339":2.6279616355895996,"340":-1.3820805549621582,"341":-0.9833046197891235,"342":-1.6853586435317993,"343":-1.5218168497085571,"344":1.9468166828155518,"345":-0.6684266328811646,"346":-3.0493149757385254,"347":1.25139582157135,"348":-0.5562314987182617,"349":0.23485969007015228,"350":-1.691175103187561,"351":-1.105236530303955,"352":-1.3911148309707642,"353":0.8998896479606628,"354":0.7488632202148438,"355":0.8099873065948486,"356":-0.7413883805274963,"357":-2.7517178058624268,"358":1.0536476373672485,"359":0.30571213364601135,"360":-0.9015212059020996,"361":-0.450904905796051,"362":-0.5535135269165039,"363":-1.3912360668182373,"364":1.1954799890518188,"365":0.02326086536049843,"366":-1.443914771080017,"367":0.4446057081222534,"368":-1.245363473892212,"369":0.43213945627212524,"370":-1.1306071281433105,"371":-0.34567925333976746,"372":-0.574255645275116,"373":-0.2852288782596588,"374":-1.4393328428268433,"375":-1.0883854627609253,"376":0.6098195314407349,"377":-1.551226019859314,"378":1.3368269205093384,"379":0.20101062953472137,"380":0.04478301480412483,"381":-0.1616830825805664,"382":0.5839347243309021,"383":4.691160202026367,"384":-1.5420341491699219,"385":0.7538173198699951,"386":-0.5944183468818665,"387":-0.3752504587173462,"388":0.7543010711669922,"389":0.6975645422935486,"390":0.3527092933654785,"391":-0.9440816044807434,"392":0.3284602761268616,"393":-0.6606312394142151,"394":-0.44279494881629944,"395":4.900437831878662,"396":0.7823455333709717,"397":0.6956163644790649,"398":-0.8050795197486877,"399":-1.0679889917373657}},"forgetBias":{"rows":20,"columns":1,"weights":{"0":0,"1":0,"2":0,"3":0,"4":0,"5":0,"6":0,"7":0,"8":0,"9":0,"10":0,"11":0,"12":0,"13":0,"14":0,"15":0,"16":0,"17":0,"18":0,"19":0}},"outputMatrix":{"rows":20,"columns":14,"weights":{"0":0.7409852743148804,"1":0.5364494919776917,"2":0.07373024523258209,"3":1.8448258638381958,"4":-1.3424147367477417,"5":1.2672690153121948,"6":0.2527492344379425,"7":-0.8987652659416199,"8":-0.896976888179779,"9":1.5272986888885498,"10":-0.3681313693523407,"11":-0.03893526270985603,"12":-0.6821327805519104,"13":-0.37255585193634033,"14":0.06193840876221657,"15":0.04220633581280708,"16":-0.34734779596328735,"17":-0.06372593343257904,"18":0.40020227432250977,"19":1.4799875020980835,"20":-1.5754613876342773,"21":-0.691087007522583,"22":-0.38926976919174194,"23":-0.45047950744628906,"24":0.1164502203464508,"25":-1.720384120941162,"26":0.19756224751472473,"27":-0.0999639555811882,"28":0.39244601130485535,"29":-0.702504575252533,"30":1.8844773769378662,"31":2.2582926750183105,"32":0.5120367407798767,"33":0.3405020534992218,"34":-0.4887864887714386,"35":0.20693187415599823,"36":0.4022520184516907,"37":0.5439218282699585,"38":-2.1438827514648438,"39":-1.0136901140213013,"40":0.11269792914390564,"41":3.0036559104919434,"42":0.7202086448669434,"43":-1.6619793176651,"44":0.12086167186498642,"45":0.03648276999592781,"46":-0.374056339263916,"47":0.019918473437428474,"48":0.9252826571464539,"49":0.3833742141723633,"50":0.36828354001045227,"51":0.8869335055351257,"52":0.9084622263908386,"53":0.9961987733840942,"54":0.15405158698558807,"55":-0.2065499722957611,"56":0.9347434043884277,"57":-2.4743247032165527,"58":0.20648618042469025,"59":-0.38462263345718384,"60":0.2668568193912506,"61":0.20779696106910706,"62":0.8237825632095337,"63":-0.13866066932678223,"64":0.29828909039497375,"65":0.7936564087867737,"66":1.3230738639831543,"67":1.38680100440979,"68":0.8185815811157227,"69":-1.2409324645996094,"70":1.015537142753601,"71":-1.0894346237182617,"72":1.0443572998046875,"73":0.5131296515464783,"74":1.9694923162460327,"75":0.7818354964256287,"76":-0.6165278553962708,"77":0.7734200954437256,"78":0.9201271533966064,"79":0.488638311624527,"80":0.07971228659152985,"81":-0.3775612711906433,"82":-0.15812769532203674,"83":0.9507395625114441,"84":1.0563364028930664,"85":-1.2461049556732178,"86":-0.7454944849014282,"87":-1.1492034196853638,"88":-0.8263382911682129,"89":0.0684211328625679,"90":0.07457541674375534,"91":-0.19957312941551208,"92":-0.4418327510356903,"93":1.0008928775787354,"94":2.2079105377197266,"95":1.083044171333313,"96":0.41977113485336304,"97":-0.9552208185195923,"98":0.6137140989303589,"99":-0.6328057050704956,"100":1.6646567583084106,"101":2.1441538333892822,"102":0.702116072177887,"103":0.48243042826652527,"104":-0.5769053101539612,"105":0.12776301801204681,"106":0.42129233479499817,"107":0.6053692102432251,"108":-1.555206298828125,"109":-0.9694839715957642,"110":-0.05804535001516342,"111":2.7258148193359375,"112":-0.4991600811481476,"113":-0.6741130948066711,"114":-0.9559586048126221,"115":-0.7738032937049866,"116":0.3111400306224823,"117":0.48549458384513855,"118":0.3515204191207886,"119":-0.2760583460330963,"120":-0.2849200367927551,"121":-0.6971621513366699,"122":0.47087886929512024,"123":0.5168225765228271,"124":-1.2648364305496216,"125":-0.40201303362846375,"126":-0.5430997610092163,"127":0.8616366386413574,"128":0.10474080592393875,"129":-0.5132129788398743,"130":-0.8361877799034119,"131":-1.622338891029358,"132":0.2322101593017578,"133":1.0519695281982422,"134":1.3426600694656372,"135":-0.8741704821586609,"136":0.6280893087387085,"137":0.7277936339378357,"138":0.22094804048538208,"139":-0.1732827126979828,"140":0.4994651973247528,"141":0.73414546251297,"142":-0.8306260108947754,"143":-1.3203023672103882,"144":-1.4542357921600342,"145":-1.8189469575881958,"146":0.6870601177215576,"147":-1.4302233457565308,"148":-1.1541491746902466,"149":0.32082563638687134,"150":1.2035945653915405,"151":0.3478594124317169,"152":-0.9826273322105408,"153":-0.5519219040870667,"154":-0.3599579632282257,"155":-0.1088327094912529,"156":0.037981800734996796,"157":0.27514225244522095,"158":0.2857198715209961,"159":0.5111114382743835,"160":0.5243807435035706,"161":-0.008719814009964466,"162":-0.08893521875143051,"163":-0.3166470527648926,"164":-0.3826069235801697,"165":0.1711922436952591,"166":0.10321581363677979,"167":-0.6141197085380554,"168":0.1475643515586853,"169":0.24728050827980042,"170":1.6507184505462646,"171":2.2027392387390137,"172":-0.08731705695390701,"173":0.49402952194213867,"174":-1.344602346420288,"175":-0.5455496311187744,"176":0.07260230928659439,"177":0.17508268356323242,"178":-1.4907182455062866,"179":-2.607008695602417,"180":-0.030086331069469452,"181":2.6416871547698975,"182":-0.13941647112369537,"183":-0.2972441017627716,"184":0.47969335317611694,"185":-0.2634338438510895,"186":0.515949547290802,"187":-0.2752077579498291,"188":0.29378947615623474,"189":0.42567697167396545,"190":0.549994945526123,"191":-0.5051449537277222,"192":0.4182109534740448,"193":0.26191768050193787,"194":0.6893516778945923,"195":0.4106222689151764,"196":-0.05562378466129303,"197":-1.6336971521377563,"198":1.6026997566223145,"199":1.5402305126190186,"200":-0.18944162130355835,"201":0.6640415191650391,"202":-0.08060184866189957,"203":0.13119910657405853,"204":0.1277470588684082,"205":0.1772044450044632,"206":0.05372209474444389,"207":-0.11153066903352737,"208":0.8987879157066345,"209":0.06432446837425232,"210":0.2559680938720703,"211":-0.0535208098590374,"212":-0.3223177492618561,"213":-0.5265820622444153,"214":-0.4836655259132385,"215":-0.14559046924114227,"216":-0.25673896074295044,"217":0.03573505952954292,"218":-0.18200702965259552,"219":-0.33654531836509705,"220":1.1401448249816895,"221":0.026611655950546265,"222":-0.234653502702713,"223":-0.29235389828681946,"224":-0.4791271686553955,"225":-1.0681172609329224,"226":2.4157938957214355,"227":-0.739203691482544,"228":-0.3112039268016815,"229":-1.6789183616638184,"230":-0.03660140931606293,"231":0.7549840211868286,"232":0.6296036243438721,"233":-1.1324304342269897,"234":-0.17431257665157318,"235":-0.4574185311794281,"236":0.818719744682312,"237":2.1076159477233887,"238":-0.6278921961784363,"239":0.22349649667739868,"240":0.385332852602005,"241":0.6505483388900757,"242":-0.035546641796827316,"243":-0.09074750542640686,"244":0.4098498225212097,"245":-0.22642502188682556,"246":0.08027204126119614,"247":-0.5529206395149231,"248":-0.12839114665985107,"249":0.13942988216876984,"250":0.23197638988494873,"251":0.13518032431602478,"252":0.5715735554695129,"253":0.9869679808616638,"254":1.4786691665649414,"255":1.9377351999282837,"256":-0.7925649881362915,"257":0.9088295102119446,"258":0.36791348457336426,"259":0.0637575089931488,"260":0.3127722442150116,"261":0.014285103417932987,"262":-1.2554402351379395,"263":-0.8007202744483948,"264":0.3401499390602112,"265":0.97212153673172,"266":-0.3231889009475708,"267":0.13403679430484772,"268":-1.2102164030075073,"269":-0.9107133746147156,"270":-2.603262186050415,"271":-1.3440302610397339,"272":0.48050224781036377,"273":0.6712157130241394,"274":0.09209781885147095,"275":0.02248300611972809,"276":0.026086630299687386,"277":1.0324279069900513,"278":-0.6421215534210205,"279":0.14002180099487305}},"outputHidden":{"rows":20,"columns":20,"weights":{"0":0.35619404911994934,"1":-0.02189554274082184,"2":0.041093505918979645,"3":-1.1802940368652344,"4":1.0807803869247437,"5":1.1955710649490356,"6":-0.7030622363090515,"7":-0.4064115881919861,"8":-0.9292741417884827,"9":1.850502848625183,"10":1.0997511148452759,"11":1.05118989944458,"12":0.3508355915546417,"13":0.10540448874235153,"14":-1.2526261806488037,"15":-1.0990326404571533,"16":-0.5037526488304138,"17":-0.9427939653396606,"18":-0.5577191710472107,"19":-1.849088430404663,"20":0.30369833111763,"21":0.11544649302959442,"22":0.520503044128418,"23":1.2074154615402222,"24":-4.026825904846191,"25":-0.18126656115055084,"26":2.5266635417938232,"27":0.32751813530921936,"28":1.9892860651016235,"29":-1.725083351135254,"30":1.048599362373352,"31":-1.4201303720474243,"32":-0.38288742303848267,"33":0.4940730929374695,"34":0.8144679069519043,"35":3.344953775405884,"36":-2.955781936645508,"37":2.476480484008789,"38":-0.6282792687416077,"39":2.504484176635742,"40":0.7084659934043884,"41":-1.380841612815857,"42":0.314052015542984,"43":0.16975446045398712,"44":0.7593904733657837,"45":0.6725178360939026,"46":-0.6708400249481201,"47":-0.4674956500530243,"48":-0.9965430498123169,"49":-0.10052165389060974,"50":-0.04454633593559265,"51":1.8749600648880005,"52":0.5459839701652527,"53":0.54267418384552,"54":-0.8067294955253601,"55":-0.21649406850337982,"56":0.013948711566627026,"57":-0.06876476109027863,"58":-0.607109010219574,"59":-0.7129572629928589,"60":-0.3665359914302826,"61":-1.2510133981704712,"62":-2.392662286758423,"63":-2.8074910640716553,"64":1.706900715827942,"65":-0.34366488456726074,"66":-1.0390840768814087,"67":2.9593286514282227,"68":-0.1906431019306183,"69":1.7660155296325684,"70":-1.3289735317230225,"71":0.9748033285140991,"72":-1.5008877515792847,"73":-1.3738516569137573,"74":0.4190107583999634,"75":-1.501368522644043,"76":-0.19003409147262573,"77":-2.2905943393707275,"78":-0.0889177918434143,"79":-0.7857462763786316,"80":-0.928835928440094,"81":-1.000312089920044,"82":-2.457732915878296,"83":-0.15088891983032227,"84":1.6685982942581177,"85":0.7033453583717346,"86":-1.358019232749939,"87":1.3410799503326416,"88":0.9909847974777222,"89":0.8470521569252014,"90":-2.651486873626709,"91":-1.102583646774292,"92":-1.9670042991638184,"93":-1.9550995826721191,"94":0.5265383124351501,"95":0.05100046098232269,"96":0.560952365398407,"97":-2.101006031036377,"98":0.42876532673835754,"99":-1.435015320777893,"100":-0.7791436314582825,"101":-1.0260735750198364,"102":0.0213022418320179,"103":1.6683260202407837,"104":-0.38992947340011597,"105":-0.0701172947883606,"106":0.21664437651634216,"107":-0.19595526158809662,"108":-0.6769382357597351,"109":-0.0967944785952568,"110":-1.7630771398544312,"111":-0.845095157623291,"112":-0.08445297181606293,"113":1.3458912372589111,"114":-1.1216518878936768,"115":2.7804248332977295,"116":-0.6004499793052673,"117":0.05786872282624245,"118":0.6882688403129578,"119":0.08352906256914139,"120":-1.6720349788665771,"121":0.68018639087677,"122":-1.8250843286514282,"123":-2.1107687950134277,"124":1.4161431789398193,"125":-0.2905840277671814,"126":-1.2410731315612793,"127":0.9784787893295288,"128":-0.14571107923984528,"129":0.4791122078895569,"130":-1.9508421421051025,"131":-1.5069842338562012,"132":-1.4929158687591553,"133":-1.6891183853149414,"134":1.430138111114502,"135":0.8290913701057434,"136":0.12669630348682404,"137":-2.072643995285034,"138":1.7585471868515015,"139":-1.807096004486084,"140":0.6646472811698914,"141":-1.1959353685379028,"142":-0.16247864067554474,"143":-0.30229485034942627,"144":0.5299904346466064,"145":1.3424781560897827,"146":-0.414825975894928,"147":0.0614924430847168,"148":-0.9758878946304321,"149":0.2694695293903351,"150":-0.03637949377298355,"151":2.0391087532043457,"152":0.028012067079544067,"153":0.857748806476593,"154":-0.9951953291893005,"155":1.3176411390304565,"156":-0.8241422772407532,"157":-0.058680396527051926,"158":-0.7547454237937927,"159":-0.3609958291053772,"160":-0.5066973567008972,"161":-2.279060125350952,"162":-2.0644633769989014,"163":-3.394514322280884,"164":1.8797086477279663,"165":-1.2021793127059937,"166":-1.3585108518600464,"167":1.623204231262207,"168":0.2394087314605713,"169":0.41802048683166504,"170":-1.3738545179367065,"171":1.0082257986068726,"172":-1.6461849212646484,"173":-2.1961350440979004,"174":3.8651750087738037,"175":1.423237681388855,"176":-0.31116706132888794,"177":-2.086460828781128,"178":0.580659031867981,"179":0.5506759285926819,"180":0.11500369012355804,"181":0.10378199070692062,"182":0.6279622912406921,"183":0.8908649682998657,"184":-0.9709096550941467,"185":-0.48119041323661804,"186":1.7644727230072021,"187":-0.07997006922960281,"188":0.4885779917240143,"189":-0.6170492768287659,"190":0.06780093163251877,"191":-0.17433063685894012,"192":0.25190532207489014,"193":1.6005395650863647,"194":-0.08249453455209732,"195":-1.2171597480773926,"196":0.6295305490493774,"197":1.5789294242858887,"198":-0.18019771575927734,"199":0.8367564678192139,"200":-1.775748372077942,"201":-0.6982091665267944,"202":-0.40203434228897095,"203":-3.0181946754455566,"204":1.1867820024490356,"205":0.7635703682899475,"206":-0.885024905204773,"207":-0.17834880948066711,"208":0.7080978155136108,"209":1.2703502178192139,"210":-1.6454317569732666,"211":-0.8760016560554504,"212":-0.03265276178717613,"213":-3.3086750507354736,"214":-0.8290404677391052,"215":1.5656661987304688,"216":2.9737401008605957,"217":-0.9093060493469238,"218":1.735761046409607,"219":-1.637878179550171,"220":-0.6901569366455078,"221":-1.2222373485565186,"222":-2.52182674407959,"223":-4.0060906410217285,"224":1.930187463760376,"225":0.11068123579025269,"226":-1.979997158050537,"227":1.0272122621536255,"228":0.05868940427899361,"229":0.8989717364311218,"230":-2.5635910034179688,"231":-0.6344013214111328,"232":-2.53316330909729,"233":-2.9385716915130615,"234":-0.8057265281677246,"235":0.8342291712760925,"236":-0.31881433725357056,"237":-3.17490291595459,"238":0.7212404012680054,"239":-0.810605525970459,"240":0.5009539127349854,"241":0.5068767666816711,"242":0.0782562866806984,"243":2.4672279357910156,"244":-0.0777471661567688,"245":1.9597899913787842,"246":0.19678817689418793,"247":-0.3039522171020508,"248":0.14537768065929413,"249":0.5020409822463989,"250":0.8204058408737183,"251":0.6419895887374878,"252":0.5731195211410522,"253":1.5442782640457153,"254":-4.071362495422363,"255":-1.5667556524276733,"256":0.7090917229652405,"257":1.3005247116088867,"258":-0.6784447431564331,"259":-0.20012988150119781,"260":2.7945191860198975,"261":5.166994094848633,"262":0.7765071988105774,"263":3.7857675552368164,"264":-2.2666666507720947,"265":1.7788138389587402,"266":1.859961986541748,"267":-0.36398038268089294,"268":0.37761831283569336,"269":-0.5122016072273254,"270":1.6520936489105225,"271":-0.42372971773147583,"272":0.5860173106193542,"273":0.4618675708770752,"274":-0.3938212990760803,"275":0.5490392446517944,"276":0.07839224487543106,"277":2.782674551010132,"278":0.014760968275368214,"279":1.5937057733535767,"280":0.06111763417720795,"281":-1.9342633485794067,"282":0.5543080568313599,"283":0.5114150047302246,"284":0.6750191450119019,"285":1.0450869798660278,"286":-0.12718315422534943,"287":-0.6193374991416931,"288":-1.2836594581604004,"289":0.28143957257270813,"290":-0.6389920115470886,"291":-0.4742969572544098,"292":0.7776196002960205,"293":-0.821607768535614,"294":-5.8229289054870605,"295":4.7355828285217285,"296":2.171077013015747,"297":-0.36478039622306824,"298":0.09061754494905472,"299":0.7580887675285339,"300":-1.4362739324569702,"301":-1.3455318212509155,"302":1.2977696657180786,"303":-0.5843290090560913,"304":-0.5061634182929993,"305":3.1321187019348145,"306":-0.09049706906080246,"307":-1.4263414144515991,"308":-0.0032793295104056597,"309":0.12354034930467606,"310":0.3167415261268616,"311":-0.8960784077644348,"312":0.5827777981758118,"313":-0.3901155889034271,"314":0.6061124801635742,"315":7.136022090911865,"316":0.6278336048126221,"317":-0.5456968545913696,"318":1.8065590858459473,"319":-1.6882303953170776,"320":2.537407636642456,"321":-0.9654367566108704,"322":1.0712302923202515,"323":0.5193096399307251,"324":1.1538571119308472,"325":1.6461255550384521,"326":-0.8762655854225159,"327":-0.2854558229446411,"328":-2.0544521808624268,"329":0.23228038847446442,"330":-0.06015019118785858,"331":1.2675377130508423,"332":0.4521017372608185,"333":-1.5337940454483032,"334":-1.5160624980926514,"335":-3.4249346256256104,"336":-0.3853994309902191,"337":-0.11507966369390488,"338":-4.186117649078369,"339":2.8159303665161133,"340":-2.159289836883545,"341":-2.5287699699401855,"342":-1.2177960872650146,"343":-4.663167476654053,"344":1.194210171699524,"345":-0.46575868129730225,"346":-2.195044994354248,"347":0.6272279024124146,"348":-0.5869080424308777,"349":1.0159661769866943,"350":-1.902765154838562,"351":0.6092745065689087,"352":-0.7577764391899109,"353":-1.5105087757110596,"354":0.47902828454971313,"355":3.107325553894043,"356":0.29575490951538086,"357":-2.1608774662017822,"358":1.4934368133544922,"359":-0.6423336863517761,"360":0.8800503611564636,"361":-1.1350075006484985,"362":-0.236617773771286,"363":0.5545523166656494,"364":1.3779445886611938,"365":2.0189998149871826,"366":-0.6207777261734009,"367":-0.227598175406456,"368":-3.614448070526123,"369":-0.7862681150436401,"370":-0.013998456299304962,"371":3.7229247093200684,"372":0.2015226036310196,"373":0.5790881514549255,"374":-2.8364410400390625,"375":-0.088142529129982,"376":0.7665207982063293,"377":-0.9040405750274658,"378":-0.4494421184062958,"379":-0.3093743324279785,"380":0.44950607419013977,"381":-1.8987319469451904,"382":0.34701383113861084,"383":5.398458957672119,"384":-1.1672401428222656,"385":-1.5589303970336914,"386":0.10673496127128601,"387":0.009596646763384342,"388":0.38155725598335266,"389":1.146203637123108,"390":-0.17283527553081512,"391":-1.0356992483139038,"392":0.3872469365596771,"393":0.7039352655410767,"394":1.0138137340545654,"395":1.450698971748352,"396":-0.389871746301651,"397":1.310394048690796,"398":-2.3241190910339355,"399":-0.925636351108551}},"outputBias":{"rows":20,"columns":1,"weights":{"0":-1.2543498277664185,"1":1.3161768913269043,"2":-0.390443354845047,"3":-1.189802885055542,"4":-1.0027596950531006,"5":-1.2806103229522705,"6":0.6343680620193481,"7":-0.9156451225280762,"8":-1.3797210454940796,"9":-1.0435113906860352,"10":0.27244237065315247,"11":-1.0777639150619507,"12":-1.073472261428833,"13":-0.03172675147652626,"14":-0.7834257483482361,"15":3.009589910507202,"16":-0.3723267614841461,"17":-1.1074836254119873,"18":-0.937688946723938,"19":-2.0879080295562744}},"cellActivationMatrix":{"rows":20,"columns":14,"weights":{"0":-0.3043230175971985,"1":0.4620633125305176,"2":-0.33164966106414795,"3":-0.36392197012901306,"4":1.098980188369751,"5":-0.33579039573669434,"6":1.1557775735855103,"7":0.408321738243103,"8":0.4933605492115021,"9":-0.7818907499313354,"10":0.35426273941993713,"11":-0.3092859089374542,"12":0.8268135190010071,"13":-0.28566133975982666,"14":-0.6221989989280701,"15":0.9784731268882751,"16":0.5406970381736755,"17":0.0565461702644825,"18":0.16208963096141815,"19":-0.3317429721355438,"20":0.5737141370773315,"21":0.1690702736377716,"22":0.7457941174507141,"23":-0.4958718717098236,"24":-0.850054144859314,"25":0.2709479033946991,"26":0.5388268828392029,"27":1.643720269203186,"28":-0.15161219239234924,"29":1.1453680992126465,"30":-0.4996132254600525,"31":0.017176728695631027,"32":-0.48628848791122437,"33":-0.5875871777534485,"34":1.2719224691390991,"35":-0.028159266337752342,"36":-0.11001861840486526,"37":0.038336560130119324,"38":0.21152660250663757,"39":1.0298316478729248,"40":-0.17641741037368774,"41":-0.78048175573349,"42":-0.698535144329071,"43":0.5017932057380676,"44":0.13162122666835785,"45":0.5443142652511597,"46":-1.0117344856262207,"47":-0.6754009127616882,"48":0.5614315867424011,"49":-0.3256322741508484,"50":-0.26050806045532227,"51":-0.514168381690979,"52":1.1997978687286377,"53":1.1412450075149536,"54":-0.22456882894039154,"55":-0.7324948906898499,"56":0.7272641062736511,"57":-1.6368881464004517,"58":-0.7082455158233643,"59":-2.4770851135253906,"60":0.10893719643354416,"61":-0.2699326276779175,"62":-1.4386675357818604,"63":-0.7372088432312012,"64":-0.7522495985031128,"65":0.5388559699058533,"66":1.3605670928955078,"67":-1.1177035570144653,"68":-0.5325217247009277,"69":0.10408521443605423,"70":-0.3289918601512909,"71":1.3388792276382446,"72":-1.2311670780181885,"73":-0.688584566116333,"74":0.26657676696777344,"75":0.1450384110212326,"76":1.2846381664276123,"77":-0.4757249057292938,"78":-0.3493296504020691,"79":-0.00020800573111046106,"80":0.09653415530920029,"81":0.8824508190155029,"82":-0.23301583528518677,"83":-1.4279097318649292,"84":0.07956518977880478,"85":0.5475285649299622,"86":0.5615050196647644,"87":1.548539638519287,"88":0.4430319666862488,"89":1.030532717704773,"90":-0.049105532467365265,"91":0.46692344546318054,"92":0.4920656979084015,"93":0.13097494840621948,"94":-0.2463497519493103,"95":-0.8212538361549377,"96":0.48272567987442017,"97":1.106634259223938,"98":0.24260440468788147,"99":-0.9036482572555542,"100":1.1045221090316772,"101":0.7453785538673401,"102":0.6386579871177673,"103":0.8755086064338684,"104":-1.6249507665634155,"105":0.030743110924959183,"106":0.1905592978000641,"107":0.21771056950092316,"108":-0.7872678637504578,"109":-0.9752025604248047,"110":0.33286768198013306,"111":1.3612381219863892,"112":0.5954524874687195,"113":-0.8669192790985107,"114":1.625717282295227,"115":0.7332006692886353,"116":0.5170113444328308,"117":0.4112848937511444,"118":-0.8633671998977661,"119":0.4219166934490204,"120":0.41997581720352173,"121":0.16717559099197388,"122":-0.9887731671333313,"123":-1.4451918601989746,"124":0.7098994255065918,"125":1.858547568321228,"126":0.4825938642024994,"127":-0.18788756430149078,"128":-1.0763828754425049,"129":-0.32942724227905273,"130":-0.5014832615852356,"131":-0.06540212035179138,"132":0.23368047177791595,"133":-0.9026110768318176,"134":-0.8190634250640869,"135":0.5610995888710022,"136":-0.533629298210144,"137":0.35217660665512085,"138":-1.1198384761810303,"139":0.0794893130660057,"140":-0.24004589021205902,"141":1.0176211595535278,"142":-0.3314898610115051,"143":0.30743229389190674,"144":-0.36947208642959595,"145":-0.919532835483551,"146":0.25708627700805664,"147":0.8684251308441162,"148":0.5695502758026123,"149":-0.09858981519937515,"150":0.598411500453949,"151":0.5896166563034058,"152":-0.231718510389328,"153":-0.40352848172187805,"154":-0.6017249226570129,"155":0.4655302166938782,"156":-1.005683422088623,"157":-0.586467981338501,"158":0.6047770380973816,"159":-1.0917627811431885,"160":-0.14403116703033447,"161":-0.30742335319519043,"162":-0.002643764950335026,"163":-0.711152195930481,"164":2.6207735538482666,"165":0.5346238017082214,"166":0.07876954227685928,"167":-1.3490992784500122,"168":-0.5375601649284363,"169":0.7813923954963684,"170":-1.2026547193527222,"171":-1.47877037525177,"172":-0.21710917353630066,"173":-0.9047353267669678,"174":0.9979403614997864,"175":-0.11635249108076096,"176":-0.17511704564094543,"177":-0.39070814847946167,"178":1.5773117542266846,"179":1.1089739799499512,"180":-0.004960689228028059,"181":-2.7979161739349365,"182":-1.1554182767868042,"183":0.31718167662620544,"184":0.4880351126194,"185":-0.10046359896659851,"186":0.002838016953319311,"187":-0.7101847529411316,"188":-0.12928053736686707,"189":1.2472697496414185,"190":1.4708327054977417,"191":-1.1484465599060059,"192":0.5406897664070129,"193":0.15356793999671936,"194":1.00836980342865,"195":-0.14584028720855713,"196":0.2142944037914276,"197":-1.1688387393951416,"198":1.9688276052474976,"199":2.02048397064209,"200":-0.2914067208766937,"201":0.6947876214981079,"202":-0.012523911893367767,"203":0.5160377621650696,"204":0.33365297317504883,"205":0.25375834107398987,"206":-0.8661220669746399,"207":-0.9926547408103943,"208":0.9400848150253296,"209":2.6876847743988037,"210":1.298196792602539,"211":0.5000123977661133,"212":-1.0351675748825073,"213":-0.8560632467269897,"214":-0.42999401688575745,"215":0.6264249086380005,"216":0.43486249446868896,"217":-0.7613124847412109,"218":-1.1133891344070435,"219":0.7683196663856506,"220":0.14656129479408264,"221":-0.9626563191413879,"222":-1.6022578477859497,"223":-1.3263505697250366,"224":0.7207662463188171,"225":1.2238140106201172,"226":-1.2582991123199463,"227":-0.2897222340106964,"228":0.032021183520555496,"229":-0.0467088520526886,"230":0.9186621904373169,"231":-0.7511683702468872,"232":-0.9476597309112549,"233":0.8587566614151001,"234":-0.20947572588920593,"235":0.5254724025726318,"236":-1.24244225025177,"237":-0.7801850438117981,"238":0.24615642428398132,"239":0.7035912871360779,"240":0.25215551257133484,"241":0.5924442410469055,"242":0.24651464819908142,"243":-0.2974081337451935,"244":0.45498737692832947,"245":-0.018833665177226067,"246":0.14736999571323395,"247":0.08648216724395752,"248":0.3345417380332947,"249":0.13007202744483948,"250":0.6393489241600037,"251":-0.38932162523269653,"252":0.9937018752098083,"253":0.07200368493795395,"254":-0.4656970202922821,"255":-0.5288243293762207,"256":-0.39593034982681274,"257":1.2025588750839233,"258":-0.7453635931015015,"259":-0.8095460534095764,"260":-0.8273768424987793,"261":1.4315752983093262,"262":-0.7845660448074341,"263":-0.29913362860679626,"264":-1.2374026775360107,"265":-0.6364629864692688,"266":-0.12366738170385361,"267":0.15265914797782898,"268":0.46643969416618347,"269":-0.3547845780849457,"270":0.7120189070701599,"271":0.29428163170814514,"272":-0.49976634979248047,"273":0.7569587826728821,"274":0.6308913826942444,"275":-0.6191619634628296,"276":0.4377388656139374,"277":-0.8229315876960754,"278":1.0914623737335205,"279":-0.6643922328948975}},"cellActivationHidden":{"rows":20,"columns":20,"weights":{"0":0.1896338015794754,"1":0.08802106231451035,"2":0.4467366635799408,"3":0.6560121178627014,"4":-1.435814380645752,"5":-0.16434113681316376,"6":1.7257641553878784,"7":-0.40457215905189514,"8":0.6669867038726807,"9":-0.3790419399738312,"10":0.8835316896438599,"11":-0.2126266062259674,"12":0.2149241715669632,"13":-0.6426877379417419,"14":0.2054777294397354,"15":-0.5685157179832458,"16":0.4367925226688385,"17":1.0645917654037476,"18":-0.6469049453735352,"19":1.0177874565124512,"20":0.8677312731742859,"21":1.0528205633163452,"22":1.9615341424942017,"23":0.741028368473053,"24":-0.4239741265773773,"25":0.8267715573310852,"26":0.7457064986228943,"27":-1.73787522315979,"28":-1.091742753982544,"29":0.1398705095052719,"30":0.21759752929210663,"31":0.8990365266799927,"32":1.82233726978302,"33":-0.5034478306770325,"34":-1.2457859516143799,"35":0.4860530495643616,"36":0.9779326915740967,"37":1.9712543487548828,"38":-0.6809098720550537,"39":0.6027102470397949,"40":0.6333552002906799,"41":0.06360092759132385,"42":0.7059075236320496,"43":0.7083075046539307,"44":-0.5176296830177307,"45":0.10210590809583664,"46":0.4985429346561432,"47":-0.66010981798172,"48":0.41280895471572876,"49":0.7477601170539856,"50":0.7062439918518066,"51":-0.5145201086997986,"52":0.4585232138633728,"53":-0.656347393989563,"54":-0.09764204919338226,"55":-0.6238797307014465,"56":0.6695305109024048,"57":0.4762261211872101,"58":-0.596902072429657,"59":-0.5347058176994324,"60":-0.03658488765358925,"61":-0.09071872383356094,"62":0.455583393573761,"63":0.4944835603237152,"64":-0.8211072683334351,"65":-0.27108874917030334,"66":0.14138825237751007,"67":-0.5256488919258118,"68":0.722247302532196,"69":-0.44937559962272644,"70":-0.01916932687163353,"71":-1.0150269269943237,"72":0.11040820926427841,"73":-0.2465212345123291,"74":0.09933025389909744,"75":0.3310825228691101,"76":-0.13608501851558685,"77":0.7097357511520386,"78":-0.31061068177223206,"79":0.14704617857933044,"80":-1.3482922315597534,"81":1.3990635871887207,"82":-0.899143636226654,"83":-0.08102066069841385,"84":-0.4294518530368805,"85":-1.899444580078125,"86":0.019763238728046417,"87":0.9892602562904358,"88":1.2158725261688232,"89":-1.1692837476730347,"90":-0.1252712607383728,"91":-2.090108633041382,"92":-1.181322693824768,"93":0.6266106963157654,"94":1.084415078163147,"95":-1.3635889291763306,"96":-1.762833595275879,"97":-0.47317346930503845,"98":1.1437815427780151,"99":0.461675763130188,"100":-0.592870831489563,"101":0.1798941195011139,"102":0.10125738382339478,"103":-0.04168965294957161,"104":0.3437427878379822,"105":0.034305550158023834,"106":0.03280215710401535,"107":-0.06824781745672226,"108":2.185009717941284,"109":0.4744945466518402,"110":0.6411387920379639,"111":-0.4744713604450226,"112":-0.3876875936985016,"113":-0.40326932072639465,"114":0.4674396216869354,"115":-1.1329829692840576,"116":0.7010185718536377,"117":-0.3715732991695404,"118":-0.17796359956264496,"119":-1.143816351890564,"120":0.6663654446601868,"121":-0.14943711459636688,"122":1.0499424934387207,"123":0.22615307569503784,"124":0.129515141248703,"125":0.4080101251602173,"126":0.2937418520450592,"127":-1.0580401420593262,"128":-0.9287672638893127,"129":0.6026771664619446,"130":0.6084017157554626,"131":1.1799333095550537,"132":1.16901433467865,"133":-0.4199926555156708,"134":-1.4179730415344238,"135":-1.326240062713623,"136":2.0206615924835205,"137":1.0725579261779785,"138":-0.4109281897544861,"139":1.254426121711731,"140":-0.17112955451011658,"141":-0.5908932685852051,"142":-0.32253554463386536,"143":-0.4216080904006958,"144":0.24659216403961182,"145":-0.4774836003780365,"146":-0.5196607708930969,"147":0.24111820757389069,"148":-0.9287663102149963,"149":-0.5792266726493835,"150":-0.545887291431427,"151":1.0524154901504517,"152":-0.037664253264665604,"153":0.21314573287963867,"154":-0.38186949491500854,"155":-0.36306315660476685,"156":-0.18198083341121674,"157":-0.28224077820777893,"158":0.36165985465049744,"159":-0.3890278935432434,"160":0.9840986132621765,"161":-0.6614041328430176,"162":1.647345781326294,"163":0.524275004863739,"164":0.03075554221868515,"165":1.2427709102630615,"166":-0.256551057100296,"167":-1.0098254680633545,"168":-1.2391239404678345,"169":-0.24944067001342773,"170":-0.024554036557674408,"171":0.5209013223648071,"172":1.6241987943649292,"173":-1.084006428718567,"174":-2.564784288406372,"175":-3.163114070892334,"176":0.4345439672470093,"177":0.36257025599479675,"178":-0.2437736541032791,"179":-0.7241014242172241,"180":-1.0647600889205933,"181":-0.2612678110599518,"182":-0.948787271976471,"183":-0.7079088091850281,"184":0.8442471623420715,"185":-0.42090216279029846,"186":-1.001243233680725,"187":0.9072470664978027,"188":0.8120684027671814,"189":-0.16905787587165833,"190":-0.8079864978790283,"191":-0.998163640499115,"192":-0.7077832221984863,"193":-0.0020683924667537212,"194":0.3169499933719635,"195":-0.831066370010376,"196":0.10794740170240402,"197":-0.4240533709526062,"198":0.4810897409915924,"199":-0.0785008892416954,"200":-0.016968857496976852,"201":1.0841755867004395,"202":0.546183705329895,"203":0.2179620862007141,"204":-1.2893568277359009,"205":-0.19487127661705017,"206":1.206083059310913,"207":-0.15113399922847748,"208":1.0440388917922974,"209":0.556395947933197,"210":1.8109511137008667,"211":-0.8175473809242249,"212":0.29831770062446594,"213":-1.235802412033081,"214":-0.36225762963294983,"215":-0.9720247387886047,"216":0.6605913043022156,"217":1.3511487245559692,"218":-0.17089365422725677,"219":-1.5130183696746826,"220":-0.43627411127090454,"221":1.4133296012878418,"222":0.34927549958229065,"223":0.4257669150829315,"224":-0.9063648581504822,"225":-0.7872589826583862,"226":0.8454594016075134,"227":-0.17022663354873657,"228":0.9375272989273071,"229":-1.0344078540802002,"230":0.07229823619127274,"231":-0.5976099371910095,"232":0.01791061833500862,"233":0.09937725961208344,"234":0.8564250469207764,"235":-1.9964505434036255,"236":-0.29702672362327576,"237":0.7438833117485046,"238":-0.15539778769016266,"239":0.993599534034729,"240":-0.5280991196632385,"241":-0.6880020499229431,"242":-0.41650450229644775,"243":-0.2655876576900482,"244":-0.487630158662796,"245":-0.035812441259622574,"246":0.3555781841278076,"247":0.47567203640937805,"248":1.3843157291412354,"249":0.8553798794746399,"250":0.4141020178794861,"251":-0.738128662109375,"252":-0.6670442819595337,"253":-0.5339589715003967,"254":-0.9125527739524841,"255":0.9142377972602844,"256":0.9318475723266602,"257":0.11052108556032181,"258":0.1768609583377838,"259":0.2718816101551056,"260":0.993690550327301,"261":0.33659741282463074,"262":0.7545496225357056,"263":0.7798547148704529,"264":-0.8016210794448853,"265":0.3153414726257324,"266":0.909244954586029,"267":-0.8797953724861145,"268":-0.9625139832496643,"269":0.16668660938739777,"270":1.0889123678207397,"271":0.7068543434143066,"272":0.6614567637443542,"273":-0.11860306560993195,"274":-0.12610670924186707,"275":0.5406853556632996,"276":-0.021864935755729675,"277":0.41230717301368713,"278":-0.7194615602493286,"279":0.07784443348646164,"280":1.0679876804351807,"281":1.289258599281311,"282":-0.3082634508609772,"283":1.6142418384552002,"284":0.6118054986000061,"285":0.9133231043815613,"286":0.22193032503128052,"287":-0.5768235921859741,"288":-1.8129360675811768,"289":-0.5637776851654053,"290":1.2246904373168945,"291":1.0214929580688477,"292":-0.4535622298717499,"293":2.7568233013153076,"294":2.8039722442626953,"295":0.9290677905082703,"296":-3.7060558795928955,"297":-0.035180896520614624,"298":-0.9480867385864258,"299":1.814609408378601,"300":-0.5578387975692749,"301":0.583171546459198,"302":-0.9991599321365356,"303":-0.0893307626247406,"304":0.12317849695682526,"305":0.40623682737350464,"306":0.4613192677497864,"307":0.2195366472005844,"308":0.7879737019538879,"309":0.23359769582748413,"310":0.16392213106155396,"311":-0.9734915494918823,"312":-1.2876617908477783,"313":0.9599995017051697,"314":-0.025223400443792343,"315":-0.800039529800415,"316":-0.21490643918514252,"317":-1.3364179134368896,"318":1.560590386390686,"319":0.6444387435913086,"320":-0.8134459853172302,"321":0.9135469198226929,"322":0.13284599781036377,"323":-0.4418574273586273,"324":0.1384122669696808,"325":-0.6271880269050598,"326":-0.43809136748313904,"327":0.8768244385719299,"328":1.5501325130462646,"329":0.14819668233394623,"330":-0.14500877261161804,"331":-1.3636225461959839,"332":-0.29091548919677734,"333":-0.19446516036987305,"334":0.3227510452270508,"335":-1.092865228652954,"336":0.7347686290740967,"337":-0.13812951743602753,"338":0.2990991473197937,"339":-0.28802892565727234,"340":1.9623479843139648,"341":1.8334752321243286,"342":0.8467233180999756,"343":1.6668024063110352,"344":-1.1773884296417236,"345":1.3959548473358154,"346":1.6353570222854614,"347":-0.7739728093147278,"348":-0.1137443259358406,"349":0.02744966931641102,"350":1.0229860544204712,"351":0.46098220348358154,"352":0.5834891200065613,"353":-0.15057818591594696,"354":-0.7400707602500916,"355":-1.1908824443817139,"356":0.5515024662017822,"357":1.311720371246338,"358":-1.2179951667785645,"359":0.25857678055763245,"360":0.9649839997291565,"361":0.31150200963020325,"362":-0.4839262068271637,"363":-0.9619751572608948,"364":1.2283488512039185,"365":1.0205036401748657,"366":-0.35492968559265137,"367":0.4392106533050537,"368":-1.164642333984375,"369":0.08324605226516724,"370":0.3359825909137726,"371":1.379988193511963,"372":-0.19566528499126434,"373":0.774233341217041,"374":0.05393730103969574,"375":-0.9307993650436401,"376":-0.8075016140937805,"377":-1.2014576196670532,"378":-0.0400473028421402,"379":0.007480932399630547,"380":0.6111695766448975,"381":0.6563529968261719,"382":0.5758423209190369,"383":0.8979581594467163,"384":-1.0208282470703125,"385":0.06776835769414902,"386":2.0017967224121094,"387":-0.44696804881095886,"388":-0.9834819436073303,"389":-0.2727232873439789,"390":1.3247135877609253,"391":0.8581665754318237,"392":0.4728471636772156,"393":0.06825074553489685,"394":-0.09621370583772659,"395":-0.7751384973526001,"396":-0.140764519572258,"397":0.9086872935295105,"398":-0.44205784797668457,"399":0.318244993686676}},"cellActivationBias":{"rows":20,"columns":1,"weights":{"0":0.06403353810310364,"1":0.05304539576172829,"2":-0.28346946835517883,"3":-0.1314045637845993,"4":0.11645755916833878,"5":-0.36670011281967163,"6":-0.4999121427536011,"7":0.0650734230875969,"8":0.4283347427845001,"9":-0.5963912606239319,"10":-0.6564046740531921,"11":-0.1261904537677765,"12":-0.10657549649477005,"13":0.4748741388320923,"14":0.26599276065826416,"15":0.293018102645874,"16":-0.5348272919654846,"17":0.021819228306412697,"18":0.06380535662174225,"19":0.9498036503791809}}},{"inputMatrix":{"rows":20,"columns":20,"weights":{"0":-1.9869771003723145,"1":0.7810433506965637,"2":-0.07119394838809967,"3":-0.7029054164886475,"4":1.5729140043258667,"5":-2.525099277496338,"6":-0.7026987075805664,"7":0.042381539940834045,"8":-0.1776151806116104,"9":1.3147656917572021,"10":-0.4585745930671692,"11":-0.6265356540679932,"12":-0.05443088710308075,"13":-0.4786653220653534,"14":0.24110129475593567,"15":-0.6079949140548706,"16":0.4246383309364319,"17":-2.1527771949768066,"18":2.771651268005371,"19":-2.678999662399292,"20":0.25711789727211,"21":1.358939528465271,"22":-0.051788728684186935,"23":-0.04304339736700058,"24":0.4929371774196625,"25":3.5862843990325928,"26":-1.0581583976745605,"27":0.8874481916427612,"28":0.35712867975234985,"29":0.6894598007202148,"30":-0.8729590177536011,"31":-0.5928447246551514,"32":0.7169774770736694,"33":2.270871162414551,"34":-2.0331060886383057,"35":0.8187702298164368,"36":-2.179769515991211,"37":-0.9315148591995239,"38":-0.3803236782550812,"39":-5.397149085998535,"40":1.1035650968551636,"41":-0.8099920749664307,"42":0.41017672419548035,"43":2.216475248336792,"44":-4.879029273986816,"45":-0.6697579026222229,"46":1.794706106185913,"47":-0.6984025835990906,"48":-0.5665679574012756,"49":-0.17612221837043762,"50":1.500657558441162,"51":-0.49031516909599304,"52":0.17828239500522614,"53":-0.2046886384487152,"54":2.1831822395324707,"55":0.3562585711479187,"56":-1.9555047750473022,"57":0.5902358293533325,"58":-1.1121190786361694,"59":-1.5785131454467773,"60":-0.5694999098777771,"61":-0.24371841549873352,"62":0.35568201541900635,"63":-0.6544255614280701,"64":1.1805387735366821,"65":2.051788330078125,"66":-1.9776763916015625,"67":-0.1736713945865631,"68":-1.5068811178207397,"69":1.366867184638977,"70":-1.9380197525024414,"71":-0.1251739114522934,"72":0.6555028557777405,"73":0.06993503868579865,"74":-1.679013967514038,"75":3.2301688194274902,"76":0.6492403149604797,"77":-0.44907549023628235,"78":0.7024401426315308,"79":-1.5142256021499634,"80":-0.17134638130664825,"81":0.7705824375152588,"82":-1.0152183771133423,"83":-0.8199924230575562,"84":0.3943054974079132,"85":-2.5596868991851807,"86":0.3857020437717438,"87":1.5411585569381714,"88":2.3255438804626465,"89":0.8611944913864136,"90":-0.18394161760807037,"91":-0.8411470055580139,"92":-0.9192468523979187,"93":-1.6129807233810425,"94":2.155045747756958,"95":-2.7688629627227783,"96":1.0445940494537354,"97":-0.05664454773068428,"98":-0.11445339024066925,"99":-1.7835673093795776,"100":-0.46851351857185364,"101":0.854299783706665,"102":-1.40281081199646,"103":-0.7512645125389099,"104":-0.2971747815608978,"105":-3.7905757427215576,"106":0.41505730152130127,"107":1.9743361473083496,"108":2.371073007583618,"109":1.7470024824142456,"110":0.6383721828460693,"111":-1.000004768371582,"112":-2.1777889728546143,"113":0.07924803346395493,"114":2.8817124366760254,"115":-0.8067795038223267,"116":-2.3914146423339844,"117":-0.5691055059432983,"118":-0.2104303240776062,"119":-2.3946609497070312,"120":0.24644805490970612,"121":-0.6805222630500793,"122":-0.616163969039917,"123":-1.765384316444397,"124":-1.7746870517730713,"125":-0.581258237361908,"126":0.3650731146335602,"127":2.32246994972229,"128":1.8231725692749023,"129":0.24513261020183563,"130":0.36495861411094666,"131":0.373151034116745,"132":-1.084516167640686,"133":-0.7035870552062988,"134":1.1637561321258545,"135":2.4755263328552246,"136":2.4424026012420654,"137":-0.09950355440378189,"138":-0.3226664662361145,"139":0.8018137812614441,"140":-0.08192195743322372,"141":2.4595987796783447,"142":0.9768476486206055,"143":-0.5526896119117737,"144":0.3089085817337036,"145":1.0620982646942139,"146":-0.8280822038650513,"147":-0.3265518248081207,"148":-1.9248918294906616,"149":0.32223811745643616,"150":0.08019499480724335,"151":-0.9389047026634216,"152":0.14174695312976837,"153":-1.2712428569793701,"154":-2.5306923389434814,"155":3.3044095039367676,"156":2.272920846939087,"157":-0.44277891516685486,"158":1.2439651489257812,"159":-2.446953773498535,"160":0.6764129400253296,"161":1.450959324836731,"162":-1.0866320133209229,"163":-0.5412680506706238,"164":-0.3233075737953186,"165":-0.9866931438446045,"166":0.28364771604537964,"167":1.9119244813919067,"168":0.41910549998283386,"169":1.2492212057113647,"170":-0.2024507373571396,"171":-0.9507200121879578,"172":-0.9693965911865234,"173":1.2377170324325562,"174":0.7716121077537537,"175":0.4163544476032257,"176":0.35224732756614685,"177":-0.40628039836883545,"178":0.5866260528564453,"179":-1.220393180847168,"180":-1.3385968208312988,"181":-0.09089402854442596,"182":0.5334314703941345,"183":-1.222703456878662,"184":1.2223316431045532,"185":2.0467324256896973,"186":-1.1100637912750244,"187":0.4851113259792328,"188":-0.31032320857048035,"189":0.6910544633865356,"190":-0.20849353075027466,"191":-1.2444894313812256,"192":-0.10512878000736237,"193":-0.15022486448287964,"194":0.01042940467596054,"195":-2.6431634426116943,"196":0.4020088315010071,"197":-1.199392318725586,"198":1.7884024381637573,"199":-1.0788501501083374,"200":-0.12130839377641678,"201":-1.7879821062088013,"202":-0.22327563166618347,"203":-1.1973567008972168,"204":-0.8542932868003845,"205":0.34631749987602234,"206":0.9099588990211487,"207":1.4459691047668457,"208":1.5833773612976074,"209":0.95326828956604,"210":2.2121355533599854,"211":-1.0582679510116577,"212":-1.3577039241790771,"213":-1.6220359802246094,"214":2.7839455604553223,"215":-0.0050657810643315315,"216":1.9351493120193481,"217":0.03831745311617851,"218":-0.3187897205352783,"219":-1.621414065361023,"220":-0.8347939252853394,"221":2.3705503940582275,"222":-0.4071211516857147,"223":-1.9501981735229492,"224":-0.45973125100135803,"225":-0.9588502645492554,"226":1.4933727979660034,"227":0.16497957706451416,"228":1.2855148315429688,"229":-1.5586861371994019,"230":0.2195359766483307,"231":0.11332184076309204,"232":-0.12154532968997955,"233":2.3427977561950684,"234":1.6110103130340576,"235":-3.93550443649292,"236":0.5853521823883057,"237":0.8593994379043579,"238":1.477903962135315,"239":2.096172332763672,"240":-1.485975980758667,"241":0.12605684995651245,"242":-1.4804972410202026,"243":-1.1398335695266724,"244":1.1805696487426758,"245":-0.9270644783973694,"246":-1.363256573677063,"247":2.149709463119507,"248":0.7704086303710938,"249":0.7238618731498718,"250":-0.9923380017280579,"251":-1.7725880146026611,"252":-1.3276139497756958,"253":-0.4763435423374176,"254":0.7722139358520508,"255":0.6965793967247009,"256":0.2289692759513855,"257":-1.6644260883331299,"258":0.8260484337806702,"259":-2.588386058807373,"260":1.1179556846618652,"261":-0.38471439480781555,"262":-0.4303849935531616,"263":1.0382336378097534,"264":-1.1032098531723022,"265":3.906989097595215,"266":1.9705824851989746,"267":0.6060736775398254,"268":1.3640413284301758,"269":0.5042951703071594,"270":1.660426378250122,"271":-0.3142106235027313,"272":-0.32705995440483093,"273":0.8259994387626648,"274":-2.2241547107696533,"275":-1.5764013528823853,"276":-0.6675212383270264,"277":0.6225727200508118,"278":-1.1523423194885254,"279":-0.03186623007059097,"280":-0.45964333415031433,"281":1.7321796417236328,"282":-1.3736963272094727,"283":-1.045745849609375,"284":0.2814916968345642,"285":-1.2911909818649292,"286":0.6337991952896118,"287":1.1220906972885132,"288":2.404879331588745,"289":-0.7346093058586121,"290":1.089402675628662,"291":-1.5773980617523193,"292":-2.223522424697876,"293":2.2473955154418945,"294":2.401592969894409,"295":0.49289995431900024,"296":1.7140412330627441,"297":-0.1829933375120163,"298":-0.18363164365291595,"299":-0.5918436050415039,"300":0.33388108015060425,"301":0.6878382563591003,"302":-0.909298300743103,"303":1.677580714225769,"304":-3.726559638977051,"305":-2.437892198562622,"306":2.392158269882202,"307":1.0186386108398438,"308":0.7286916971206665,"309":2.2808918952941895,"310":3.8297505378723145,"311":-0.39796605706214905,"312":-0.3971775472164154,"313":1.049973964691162,"314":2.7053797245025635,"315":1.2986000776290894,"316":-0.7267493009567261,"317":0.7274286150932312,"318":-0.024468764662742615,"319":-2.4513626098632812,"320":-0.9322316646575928,"321":-0.5759389400482178,"322":0.021004684269428253,"323":-0.6702694892883301,"324":-0.44569191336631775,"325":-2.451857566833496,"326":1.442457675933838,"327":0.5680599212646484,"328":0.6000632047653198,"329":0.7402533888816833,"330":1.7993381023406982,"331":0.17259007692337036,"332":-0.7758598327636719,"333":-1.1514285802841187,"334":-2.337290048599243,"335":-2.403938055038452,"336":1.6291927099227905,"337":0.38065189123153687,"338":1.0760077238082886,"339":0.02389337867498398,"340":-1.636917233467102,"341":0.4497537314891815,"342":-0.37422987818717957,"343":0.4442117214202881,"344":1.9810459613800049,"345":-3.249994993209839,"346":-1.9043123722076416,"347":-0.027773158624768257,"348":0.6755694150924683,"349":-0.10629212111234665,"350":-1.2428785562515259,"351":-1.6347070932388306,"352":0.17486625909805298,"353":-0.8288475871086121,"354":0.4059848487377167,"355":0.6925946474075317,"356":-1.0805732011795044,"357":-1.7374082803726196,"358":1.5591614246368408,"359":0.45100465416908264,"360":-1.8073493242263794,"361":0.8143206834793091,"362":-1.3851953744888306,"363":-1.1451376676559448,"364":0.5145713090896606,"365":-0.5550331473350525,"366":-0.3054344952106476,"367":2.3269386291503906,"368":1.3318688869476318,"369":1.775291085243225,"370":-0.4872256815433502,"371":-2.917161703109741,"372":-1.7869714498519897,"373":-1.8146870136260986,"374":1.0525918006896973,"375":-0.05487649887800217,"376":2.469050407409668,"377":-1.2300854921340942,"378":1.026145100593567,"379":-2.227757215499878,"380":-0.7627069354057312,"381":2.65483021736145,"382":0.22144350409507751,"383":0.38729873299598694,"384":0.9559133648872375,"385":1.1888829469680786,"386":0.15388430655002594,"387":-1.0796544551849365,"388":-0.6341745257377625,"389":0.8429557085037231,"390":-0.025125497952103615,"391":-2.685579776763916,"392":0.9030436873435974,"393":1.0888789892196655,"394":-0.4404902458190918,"395":-11.272886276245117,"396":-2.511847734451294,"397":-0.6939350366592407,"398":1.359900951385498,"399":-1.8821752071380615}},"inputHidden":{"rows":20,"columns":20,"weights":{"0":-0.7814552187919617,"1":1.8743600845336914,"2":-2.0499513149261475,"3":-1.7545771598815918,"4":1.8198516368865967,"5":-0.4179101586341858,"6":-5.108456611633301,"7":0.4654821455478668,"8":0.35327276587486267,"9":0.18853282928466797,"10":-0.2635015845298767,"11":2.1471168994903564,"12":1.7218024730682373,"13":1.9786961078643799,"14":-1.2609570026397705,"15":-2.2948288917541504,"16":2.19389271736145,"17":0.11113247275352478,"18":-0.2700437605381012,"19":-0.1647113412618637,"20":1.677963137626648,"21":-0.5666747689247131,"22":2.56795072555542,"23":-0.9879620671272278,"24":-0.5548735857009888,"25":-1.0880210399627686,"26":-1.2412654161453247,"27":0.9951481223106384,"28":0.4447939693927765,"29":5.225751876831055,"30":0.3290122449398041,"31":-1.3223223686218262,"32":-0.448271244764328,"33":-0.030631039291620255,"34":0.2673637270927429,"35":-0.4683505892753601,"36":0.9052276611328125,"37":2.1813833713531494,"38":2.044738292694092,"39":-2.6217973232269287,"40":-2.8823599815368652,"41":0.5778363347053528,"42":-2.2676119804382324,"43":0.027434848248958588,"44":0.4586678743362427,"45":-0.7814983129501343,"46":-0.1436810940504074,"47":1.2334214448928833,"48":-0.2065994143486023,"49":0.7846599221229553,"50":1.4788702726364136,"51":-1.6580630540847778,"52":-0.551819384098053,"53":-0.06305379420518875,"54":2.259249210357666,"55":-1.831816554069519,"56":2.585142135620117,"57":-0.6394984126091003,"58":1.7342392206192017,"59":-1.4250930547714233,"60":-2.1680588722229004,"61":0.1969509869813919,"62":2.7741332054138184,"63":-0.24224728345870972,"64":4.139505863189697,"65":3.29325270652771,"66":-0.5556179881095886,"67":0.40492579340934753,"68":-0.6311099529266357,"69":-1.6751011610031128,"70":0.6992899179458618,"71":-0.43250465393066406,"72":1.0090694427490234,"73":-3.2589216232299805,"74":1.4964877367019653,"75":0.9359996318817139,"76":0.28630906343460083,"77":-0.18645356595516205,"78":-1.4334737062454224,"79":-0.021182937547564507,"80":-0.744126558303833,"81":2.92411732673645,"82":-0.10111706703901291,"83":0.07472410798072815,"84":-0.07080349326133728,"85":1.6410869359970093,"86":-0.5460537075996399,"87":0.17906919121742249,"88":-1.4754213094711304,"89":-0.28234824538230896,"90":0.422233521938324,"91":2.5266637802124023,"92":0.7947948575019836,"93":-2.9742016792297363,"94":0.573622465133667,"95":0.5698962807655334,"96":0.797130286693573,"97":-2.969597339630127,"98":0.02665693312883377,"99":3.6898930072784424,"100":-1.3909952640533447,"101":2.0252275466918945,"102":-0.324936181306839,"103":-0.3050716817378998,"104":0.6085118651390076,"105":1.4751423597335815,"106":-0.6159343123435974,"107":2.2455039024353027,"108":-2.739431858062744,"109":2.6530051231384277,"110":-1.5929644107818604,"111":-1.8718171119689941,"112":-0.32586854696273804,"113":0.5705217123031616,"114":-0.12555697560310364,"115":1.8444457054138184,"116":2.1239922046661377,"117":-0.7556291222572327,"118":-0.6134669780731201,"119":-1.3421272039413452,"120":-2.544313430786133,"121":0.3809346556663513,"122":-1.6199958324432373,"123":-0.010699540376663208,"124":3.1877546310424805,"125":1.0381168127059937,"126":-0.5389890670776367,"127":-0.11519540846347809,"128":-1.9020315408706665,"129":-0.9574121236801147,"130":-3.1811306476593018,"131":0.4315335154533386,"132":1.430762767791748,"133":-1.2379518747329712,"134":0.903833270072937,"135":3.722848653793335,"136":-2.0514771938323975,"137":-0.7840341329574585,"138":0.0010721758008003235,"139":1.504885196685791,"140":0.6263443827629089,"141":-1.1323375701904297,"142":0.515228807926178,"143":-1.3077213764190674,"144":0.8115718364715576,"145":1.2340985536575317,"146":-2.6519198417663574,"147":0.5962790250778198,"148":-1.9208098649978638,"149":1.0453689098358154,"150":1.0293329954147339,"151":1.9008135795593262,"152":0.2651837468147278,"153":-2.909703016281128,"154":1.7090789079666138,"155":-0.38420918583869934,"156":0.000876438629347831,"157":2.6352672576904297,"158":-0.2296956479549408,"159":-3.616981029510498,"160":0.5453535914421082,"161":-1.6389927864074707,"162":-0.4622989892959595,"163":-0.30964136123657227,"164":-0.15258148312568665,"165":-0.3399925231933594,"166":-1.4841941595077515,"167":-1.349719762802124,"168":-3.426039457321167,"169":-1.3892208337783813,"170":2.534682273864746,"171":0.6499286890029907,"172":-0.5637218356132507,"173":-3.1466503143310547,"174":0.8979891538619995,"175":1.1473861932754517,"176":-1.4653528928756714,"177":1.588619351387024,"178":-1.7381772994995117,"179":0.6496132612228394,"180":1.847531795501709,"181":0.20279890298843384,"182":-3.0453858375549316,"183":-0.8829113841056824,"184":0.7238900065422058,"185":-0.419935017824173,"186":-1.4839695692062378,"187":-0.34432530403137207,"188":0.7626079320907593,"189":-0.778235137462616,"190":1.1353541612625122,"191":1.8908724784851074,"192":0.9664307236671448,"193":0.3724413812160492,"194":-2.1758556365966797,"195":-1.6234205961227417,"196":-0.23843930661678314,"197":1.1484366655349731,"198":-1.7235689163208008,"199":1.9626059532165527,"200":-2.8097193241119385,"201":1.7951695919036865,"202":1.6947447061538696,"203":1.0325654745101929,"204":-2.9092326164245605,"205":1.2859694957733154,"206":0.8373159170150757,"207":0.4618509113788605,"208":-0.6950882077217102,"209":-0.3794311583042145,"210":-0.14340470731258392,"211":0.5049949884414673,"212":0.33715730905532837,"213":0.5777971744537354,"214":-0.5648088455200195,"215":-2.320183753967285,"216":-0.43457815051078796,"217":-0.07251308858394623,"218":-3.4249308109283447,"219":-0.8216319680213928,"220":1.0165024995803833,"221":-2.974835157394409,"222":1.5787577629089355,"223":0.9474890828132629,"224":0.7745295166969299,"225":-0.031424008309841156,"226":-0.05160446837544441,"227":0.8508526086807251,"228":1.3895149230957031,"229":-2.6658432483673096,"230":-1.0557597875595093,"231":0.3703930675983429,"232":-1.1105059385299683,"233":-2.129056453704834,"234":2.439401149749756,"235":0.21905678510665894,"236":2.047024726867676,"237":0.8136196136474609,"238":-1.6332404613494873,"239":2.8215396404266357,"240":-0.08136551082134247,"241":1.6845487356185913,"242":-0.23174948990345,"243":-1.263967752456665,"244":0.13546323776245117,"245":0.9062975645065308,"246":-0.02895306795835495,"247":-0.5906456112861633,"248":-1.039127230644226,"249":-0.8518075942993164,"250":0.16629399359226227,"251":0.9571687579154968,"252":-0.08347223699092865,"253":-0.19281339645385742,"254":0.6697008609771729,"255":-0.97564297914505,"256":0.3674594461917877,"257":-0.3907451331615448,"258":-0.17973585426807404,"259":2.297816038131714,"260":-2.1255011558532715,"261":-0.6472461223602295,"262":4.210457801818848,"263":0.6985316872596741,"264":-2.3799519538879395,"265":1.5058746337890625,"266":0.004940413404256105,"267":-2.6173369884490967,"268":-0.004377463366836309,"269":-0.35150861740112305,"270":-2.035104513168335,"271":0.5056701302528381,"272":-2.1277992725372314,"273":-1.7057371139526367,"274":2.872316598892212,"275":1.0238052606582642,"276":0.44976305961608887,"277":1.7400206327438354,"278":-2.004127025604248,"279":2.1638433933258057,"280":2.854085683822632,"281":0.33169496059417725,"282":3.3879263401031494,"283":-0.6741088032722473,"284":1.5798625946044922,"285":-0.2937778830528259,"286":1.0868163108825684,"287":0.8519697189331055,"288":1.0998960733413696,"289":1.0796246528625488,"290":-0.4614070951938629,"291":1.5477759838104248,"292":1.9488117694854736,"293":0.696100115776062,"294":0.9441591501235962,"295":-0.4572966992855072,"296":-0.9024783968925476,"297":-0.10324833542108536,"298":3.057293176651001,"299":0.04674353078007698,"300":1.5572733879089355,"301":1.1664237976074219,"302":-1.2456252574920654,"303":0.5847698450088501,"304":-0.9252331852912903,"305":-3.8485586643218994,"306":-0.049516454339027405,"307":-0.48844289779663086,"308":-1.7479933500289917,"309":-0.5248677134513855,"310":-1.0021889209747314,"311":1.655988097190857,"312":0.7575215697288513,"313":-0.23063835501670837,"314":0.45895010232925415,"315":2.0079329013824463,"316":-0.5678714513778687,"317":-0.8206331729888916,"318":0.11677896231412888,"319":-0.3096080720424652,"320":1.0661722421646118,"321":-0.500908613204956,"322":-0.530805766582489,"323":0.6910045146942139,"324":-0.24969051778316498,"325":-2.673792600631714,"326":1.7096803188323975,"327":-0.9797282218933105,"328":-0.3453930616378784,"329":0.8660559058189392,"330":1.3401517868041992,"331":1.979859471321106,"332":-0.32097896933555603,"333":0.31356531381607056,"334":-0.6878982186317444,"335":2.509068489074707,"336":-0.3499095141887665,"337":0.8776265382766724,"338":-2.5509262084960938,"339":2.0618228912353516,"340":-0.5185714960098267,"341":2.1887590885162354,"342":-0.3643624186515808,"343":-0.23333340883255005,"344":0.8760325312614441,"345":-0.42083117365837097,"346":-0.5225833058357239,"347":0.21547679603099823,"348":1.0039314031600952,"349":0.05991457775235176,"350":-0.4977385699748993,"351":-2.539362907409668,"352":1.098270297050476,"353":-1.650056004524231,"354":0.08062689006328583,"355":0.10647884011268616,"356":2.091789960861206,"357":-1.683380126953125,"358":2.820462465286255,"359":-0.33045777678489685,"360":-0.09378980845212936,"361":1.4230750799179077,"362":1.7220865488052368,"363":-0.9657018184661865,"364":-1.7553060054779053,"365":0.1530158370733261,"366":0.07959360629320145,"367":0.5300443172454834,"368":-0.7134411334991455,"369":0.037896305322647095,"370":0.010234912857413292,"371":0.3427892327308655,"372":0.5574743747711182,"373":0.1489000767469406,"374":-0.8092600703239441,"375":1.3229663372039795,"376":-1.1541730165481567,"377":-0.9073868989944458,"378":1.1575945615768433,"379":1.4143121242523193,"380":1.1249467134475708,"381":-0.19867360591888428,"382":0.44882431626319885,"383":-0.6562996506690979,"384":-0.9228089451789856,"385":-1.093482494354248,"386":-0.27310967445373535,"387":0.4339093267917633,"388":0.22598131000995636,"389":0.5874236822128296,"390":-1.2259939908981323,"391":2.1236796379089355,"392":-0.8651763200759888,"393":1.998651385307312,"394":-1.09967041015625,"395":1.296154499053955,"396":-0.5759755373001099,"397":1.7141152620315552,"398":1.187164306640625,"399":0.6625981330871582}},"inputBias":{"rows":20,"columns":1,"weights":{"0":-0.7514877915382385,"1":0.329750120639801,"2":-0.01570212095975876,"3":0.19037729501724243,"4":-1.3085874319076538,"5":-2.135366916656494,"6":-0.05041871964931488,"7":-1.7543647289276123,"8":-1.683245301246643,"9":-1.9764398336410522,"10":-1.7823539972305298,"11":-0.08686883002519608,"12":-0.9912256002426147,"13":0.3660599887371063,"14":-2.345893621444702,"15":-1.5043331384658813,"16":-0.7186467051506042,"17":-1.0232712030410767,"18":-1.2899128198623657,"19":-1.024017333984375}},